{"node_array":[[{"link_weights":[],"link_vals":[],"links":0,"err_sig":null,"correct_answer":null,"cached_output":null,"category":null,"b_weight":0.29035342},{"link_weights":[],"link_vals":[],"links":0,"err_sig":null,"correct_answer":null,"cached_output":null,"category":null,"b_weight":-0.11400533},{"link_weights":[],"link_vals":[],"links":0,"err_sig":null,"correct_answer":null,"cached_output":null,"category":null,"b_weight":-0.14902818},{"link_weights":[],"link_vals":[],"links":0,"err_sig":null,"correct_answer":null,"cached_output":null,"category":null,"b_weight":0.031538844},{"link_weights":[],"link_vals":[],"links":0,"err_sig":null,"correct_answer":null,"cached_output":null,"category":null,"b_weight":-0.28861535},{"link_weights":[],"link_vals":[],"links":0,"err_sig":null,"correct_answer":null,"cached_output":null,"category":null,"b_weight":0.05134785},{"link_weights":[],"link_vals":[],"links":0,"err_sig":null,"correct_answer":null,"cached_output":null,"category":null,"b_weight":-0.24404228},{"link_weights":[],"link_vals":[],"links":0,"err_sig":null,"correct_answer":null,"cached_output":null,"category":null,"b_weight":0.16844654},{"link_weights":[],"link_vals":[],"links":0,"err_sig":null,"correct_answer":null,"cached_output":null,"category":null,"b_weight":0.26890278},{"link_weights":[],"link_vals":[],"links":0,"err_sig":null,"correct_answer":null,"cached_output":null,"category":null,"b_weight":0.025637627},{"link_weights":[],"link_vals":[],"links":0,"err_sig":null,"correct_answer":null,"cached_output":null,"category":null,"b_weight":-0.43192852},{"link_weights":[],"link_vals":[],"links":0,"err_sig":null,"correct_answer":null,"cached_output":null,"category":null,"b_weight":0.11021137},{"link_weights":[],"link_vals":[],"links":0,"err_sig":null,"correct_answer":null,"cached_output":null,"category":null,"b_weight":-0.17032933},{"link_weights":[],"link_vals":[],"links":0,"err_sig":null,"correct_answer":null,"cached_output":null,"category":null,"b_weight":-0.35632014},{"link_weights":[],"link_vals":[],"links":0,"err_sig":null,"correct_answer":null,"cached_output":null,"category":null,"b_weight":0.48747098},{"link_weights":[],"link_vals":[],"links":0,"err_sig":null,"correct_answer":null,"cached_output":null,"category":null,"b_weight":0.29590392},{"link_weights":[],"link_vals":[],"links":0,"err_sig":null,"correct_answer":null,"cached_output":null,"category":null,"b_weight":-0.12661302},{"link_weights":[],"link_vals":[],"links":0,"err_sig":null,"correct_answer":null,"cached_output":null,"category":null,"b_weight":0.03652692},{"link_weights":[],"link_vals":[],"links":0,"err_sig":null,"correct_answer":null,"cached_output":null,"category":null,"b_weight":-0.13406312},{"link_weights":[],"link_vals":[],"links":0,"err_sig":null,"correct_answer":null,"cached_output":null,"category":null,"b_weight":0.014674187},{"link_weights":[],"link_vals":[],"links":0,"err_sig":null,"correct_answer":null,"cached_output":null,"category":null,"b_weight":-0.06570506},{"link_weights":[],"link_vals":[],"links":0,"err_sig":null,"correct_answer":null,"cached_output":null,"category":null,"b_weight":0.2462672},{"link_weights":[],"link_vals":[],"links":0,"err_sig":null,"correct_answer":null,"cached_output":null,"category":null,"b_weight":-0.49599254},{"link_weights":[],"link_vals":[],"links":0,"err_sig":null,"correct_answer":null,"cached_output":null,"category":null,"b_weight":0.12740397},{"link_weights":[],"link_vals":[],"links":0,"err_sig":null,"correct_answer":null,"cached_output":null,"category":null,"b_weight":0.35212922},{"link_weights":[],"link_vals":[],"links":0,"err_sig":null,"correct_answer":null,"cached_output":null,"category":null,"b_weight":-0.2014426},{"link_weights":[],"link_vals":[],"links":0,"err_sig":null,"correct_answer":null,"cached_output":null,"category":null,"b_weight":0.49828255},{"link_weights":[],"link_vals":[],"links":0,"err_sig":null,"correct_answer":null,"cached_output":null,"category":null,"b_weight":-0.19033897},{"link_weights":[],"link_vals":[],"links":0,"err_sig":null,"correct_answer":null,"cached_output":null,"category":null,"b_weight":-0.14042914},{"link_weights":[],"link_vals":[],"links":0,"err_sig":null,"correct_answer":null,"cached_output":null,"category":null,"b_weight":0.070679784},{"link_weights":[],"link_vals":[],"links":0,"err_sig":null,"correct_answer":null,"cached_output":null,"category":null,"b_weight":-0.3406564},{"link_weights":[],"link_vals":[],"links":0,"err_sig":null,"correct_answer":null,"cached_output":null,"category":null,"b_weight":-0.07424152},{"link_weights":[],"link_vals":[],"links":0,"err_sig":null,"correct_answer":null,"cached_output":null,"category":null,"b_weight":0.014094114},{"link_weights":[],"link_vals":[],"links":0,"err_sig":null,"correct_answer":null,"cached_output":null,"category":null,"b_weight":0.061780334},{"link_weights":[],"link_vals":[],"links":0,"err_sig":null,"correct_answer":null,"cached_output":null,"category":null,"b_weight":-0.27138937},{"link_weights":[],"link_vals":[],"links":0,"err_sig":null,"correct_answer":null,"cached_output":null,"category":null,"b_weight":0.48727083},{"link_weights":[],"link_vals":[],"links":0,"err_sig":null,"correct_answer":null,"cached_output":null,"category":null,"b_weight":-0.321967},{"link_weights":[],"link_vals":[],"links":0,"err_sig":null,"correct_answer":null,"cached_output":null,"category":null,"b_weight":0.042314887},{"link_weights":[],"link_vals":[],"links":0,"err_sig":null,"correct_answer":null,"cached_output":null,"category":null,"b_weight":0.47525752},{"link_weights":[],"link_vals":[],"links":0,"err_sig":null,"correct_answer":null,"cached_output":null,"category":null,"b_weight":-0.22871387},{"link_weights":[],"link_vals":[],"links":0,"err_sig":null,"correct_answer":null,"cached_output":null,"category":null,"b_weight":0.3603344},{"link_weights":[],"link_vals":[],"links":0,"err_sig":null,"correct_answer":null,"cached_output":null,"category":null,"b_weight":-0.4005946},{"link_weights":[],"link_vals":[],"links":0,"err_sig":null,"correct_answer":null,"cached_output":null,"category":null,"b_weight":-0.32753873},{"link_weights":[],"link_vals":[],"links":0,"err_sig":null,"correct_answer":null,"cached_output":null,"category":null,"b_weight":-0.12137568},{"link_weights":[],"link_vals":[],"links":0,"err_sig":null,"correct_answer":null,"cached_output":null,"category":null,"b_weight":0.10712516},{"link_weights":[],"link_vals":[],"links":0,"err_sig":null,"correct_answer":null,"cached_output":null,"category":null,"b_weight":0.0877465},{"link_weights":[],"link_vals":[],"links":0,"err_sig":null,"correct_answer":null,"cached_output":null,"category":null,"b_weight":0.37685657},{"link_weights":[],"link_vals":[],"links":0,"err_sig":null,"correct_answer":null,"cached_output":null,"category":null,"b_weight":-0.10274756},{"link_weights":[],"link_vals":[],"links":0,"err_sig":null,"correct_answer":null,"cached_output":null,"category":null,"b_weight":0.113019824},{"link_weights":[],"link_vals":[],"links":0,"err_sig":null,"correct_answer":null,"cached_output":null,"category":null,"b_weight":0.054347873},{"link_weights":[],"link_vals":[],"links":0,"err_sig":null,"correct_answer":null,"cached_output":null,"category":null,"b_weight":-0.0882045},{"link_weights":[],"link_vals":[],"links":0,"err_sig":null,"correct_answer":null,"cached_output":null,"category":null,"b_weight":-0.29227984},{"link_weights":[],"link_vals":[],"links":0,"err_sig":null,"correct_answer":null,"cached_output":null,"category":null,"b_weight":0.09223628},{"link_weights":[],"link_vals":[],"links":0,"err_sig":null,"correct_answer":null,"cached_output":null,"category":null,"b_weight":0.04767382},{"link_weights":[],"link_vals":[],"links":0,"err_sig":null,"correct_answer":null,"cached_output":null,"category":null,"b_weight":-0.35042882},{"link_weights":[],"link_vals":[],"links":0,"err_sig":null,"correct_answer":null,"cached_output":null,"category":null,"b_weight":0.31030953},{"link_weights":[],"link_vals":[],"links":0,"err_sig":null,"correct_answer":null,"cached_output":null,"category":null,"b_weight":-0.20705593},{"link_weights":[],"link_vals":[],"links":0,"err_sig":null,"correct_answer":null,"cached_output":null,"category":null,"b_weight":-0.18430626},{"link_weights":[],"link_vals":[],"links":0,"err_sig":null,"correct_answer":null,"cached_output":null,"category":null,"b_weight":0.1928606},{"link_weights":[],"link_vals":[],"links":0,"err_sig":null,"correct_answer":null,"cached_output":null,"category":null,"b_weight":-0.20992875},{"link_weights":[],"link_vals":[],"links":0,"err_sig":null,"correct_answer":null,"cached_output":null,"category":null,"b_weight":0.3977785},{"link_weights":[],"link_vals":[],"links":0,"err_sig":null,"correct_answer":null,"cached_output":null,"category":null,"b_weight":-0.25678968},{"link_weights":[],"link_vals":[],"links":0,"err_sig":null,"correct_answer":null,"cached_output":null,"category":null,"b_weight":0.24259603},{"link_weights":[],"link_vals":[],"links":0,"err_sig":null,"correct_answer":null,"cached_output":null,"category":null,"b_weight":-0.051461577}],[{"link_weights":[-0.4243878,0.21636575,0.24465883,-0.23916793,-0.37244517,-0.09414612,-0.15826291,-0.028376244,0.07825291,-0.2645121,0.17041929,0.31467003,-0.3627941,0.30648676,0.12569594,-0.45478165,-0.22986186,-0.25256392,-0.022034358,0.4484171,0.16001984,0.053491585,0.0625595,-0.22974272,-0.15110254,0.14975633,-0.058689672,-0.16791297,-0.12787011,-0.49832645,0.19504283,0.3917644,0.37605643,0.23492572,-0.3412843,-0.27870968,-0.040239632,0.10445113,0.17668237,-0.29887784,-0.022380587,0.19304098,-0.00258179,0.15823264,-0.45078805,-0.032170106,-0.38551155,-0.4893996,-0.4723861,-0.34646207,0.45102274,-0.5031457,-0.26254216,0.20941082,-0.29842448,0.11917972,-0.47680902,0.023903437,0.039700467,-0.4998332,-0.29676244,0.19672918,0.4145976,0.16277839],"link_vals":[0.0,0.0,0.0,10.0,16.0,5.0,0.0,0.0,0.0,0.0,2.0,16.0,13.0,2.0,0.0,0.0,0.0,0.0,7.0,16.0,4.0,0.0,0.0,0.0,0.0,0.0,8.0,16.0,1.0,0.0,0.0,0.0,0.0,0.0,11.0,16.0,10.0,1.0,0.0,0.0,0.0,0.0,13.0,16.0,16.0,13.0,4.0,0.0,0.0,0.0,7.0,16.0,7.0,15.0,14.0,0.0,0.0,0.0,0.0,9.0,16.0,16.0,12.0,0.0],"links":64,"err_sig":-6.5747386e-16,"correct_answer":null,"cached_output":null,"category":null,"b_weight":-0.07699498},{"link_weights":[0.32919788,-0.04234145,-0.24486451,0.23413901,-0.32935804,-0.09611131,-0.23479603,-0.4552735,-0.39679003,0.3554935,0.09446822,-0.3543971,0.066331886,-0.14197046,-0.13478673,-0.32449144,0.360312,-0.24728264,0.32334512,0.3680874,-0.6221463,0.04948289,-0.2181246,-0.094569534,0.21624956,0.3215834,0.3850262,0.28516084,-0.11138146,-0.48501506,-0.21081086,0.015036241,0.35670564,0.10967805,0.42924368,-0.062351786,0.1682171,-0.48386672,-0.4398031,0.2124846,0.29022542,0.19767049,0.18450338,-0.07793998,0.28028455,0.03051254,-0.1256827,0.2790915,0.29164645,0.016449237,0.24413165,0.1700518,0.16246462,0.41735858,0.35647392,-0.42297992,0.35783792,0.13749796,0.23011653,-0.43453255,-0.016007653,-0.08101577,0.09166636,0.22150731],"link_vals":[0.0,0.0,0.0,10.0,16.0,5.0,0.0,0.0,0.0,0.0,2.0,16.0,13.0,2.0,0.0,0.0,0.0,0.0,7.0,16.0,4.0,0.0,0.0,0.0,0.0,0.0,8.0,16.0,1.0,0.0,0.0,0.0,0.0,0.0,11.0,16.0,10.0,1.0,0.0,0.0,0.0,0.0,13.0,16.0,16.0,13.0,4.0,0.0,0.0,0.0,7.0,16.0,7.0,15.0,14.0,0.0,0.0,0.0,0.0,9.0,16.0,16.0,12.0,0.0],"links":64,"err_sig":0.0,"correct_answer":null,"cached_output":null,"category":null,"b_weight":0.24503249},{"link_weights":[-0.047944903,0.02346212,0.4625787,0.19792269,0.21597826,0.5143377,0.011131645,-0.34213164,-0.0076689734,0.12438646,0.36075383,0.05894975,-0.14036328,-0.19048844,0.05119029,0.11377166,0.44543207,0.2782302,0.34898922,0.018620158,-0.042322677,0.35103178,-0.09491388,0.20274848,-0.47165537,0.19822493,0.09194942,-0.026165245,0.42042607,0.35054913,0.2002272,0.036804184,-0.42520046,0.05681653,0.017272908,0.0042268,-0.42421052,0.19821426,-0.32165438,0.4097178,0.052780837,-0.21876305,-0.28369054,0.23727426,0.54332006,-0.042743344,0.37652186,-0.36932212,-0.3232108,0.43990073,-0.37348384,-0.162466,-0.046872403,-0.50895804,0.46790713,-0.19449076,-0.4073664,0.13457379,0.05712014,-0.19086438,-0.1346058,0.4424952,0.11854767,-0.088742785],"link_vals":[0.0,0.0,0.0,10.0,16.0,5.0,0.0,0.0,0.0,0.0,2.0,16.0,13.0,2.0,0.0,0.0,0.0,0.0,7.0,16.0,4.0,0.0,0.0,0.0,0.0,0.0,8.0,16.0,1.0,0.0,0.0,0.0,0.0,0.0,11.0,16.0,10.0,1.0,0.0,0.0,0.0,0.0,13.0,16.0,16.0,13.0,4.0,0.0,0.0,0.0,7.0,16.0,7.0,15.0,14.0,0.0,0.0,0.0,0.0,9.0,16.0,16.0,12.0,0.0],"links":64,"err_sig":-8.7975033e-10,"correct_answer":null,"cached_output":null,"category":null,"b_weight":-0.2575171},{"link_weights":[-0.477368,-0.415573,0.009241907,0.5089183,-0.24236189,0.25806257,-0.2052613,-0.12475696,0.0660274,-0.29867867,0.16342062,0.4398765,-0.2293685,0.13731821,0.1317453,-0.35299492,0.2835735,0.29969415,-0.22670469,0.44286013,0.14943714,0.43746403,0.13705614,-0.32440734,0.45961773,0.22469279,-0.12679105,-0.1450672,0.19752392,-0.441031,-0.025319215,0.0054854196,0.25659776,0.42301768,-0.080454536,0.16114753,0.47304896,0.13227382,0.39355323,0.038329363,-0.36897564,-0.51727176,-0.05502154,0.38170093,-0.4939226,0.03911539,-0.2197223,-0.22911867,-0.20701495,-0.14420998,-0.15806031,-0.33235115,-0.13473862,-0.07674255,0.4554401,-0.07165107,-0.14171827,0.33230755,0.16962335,0.44559866,0.37012047,-0.44767937,-0.32237273,-0.145983],"link_vals":[0.0,0.0,0.0,10.0,16.0,5.0,0.0,0.0,0.0,0.0,2.0,16.0,13.0,2.0,0.0,0.0,0.0,0.0,7.0,16.0,4.0,0.0,0.0,0.0,0.0,0.0,8.0,16.0,1.0,0.0,0.0,0.0,0.0,0.0,11.0,16.0,10.0,1.0,0.0,0.0,0.0,0.0,13.0,16.0,16.0,13.0,4.0,0.0,0.0,0.0,7.0,16.0,7.0,15.0,14.0,0.0,0.0,0.0,0.0,9.0,16.0,16.0,12.0,0.0],"links":64,"err_sig":1.7569873e-8,"correct_answer":null,"cached_output":null,"category":null,"b_weight":0.28766185},{"link_weights":[0.13462329,0.18250287,-0.42968535,-0.03865008,-0.11494232,-0.0057042865,-0.101331964,0.17839025,-0.4025445,0.21864164,0.40736225,-0.062044352,-0.33221632,-0.24998929,-0.4620793,-0.32038867,-0.123071074,-0.36117885,0.069995105,-0.4901423,-0.08504006,-0.2652224,0.03748511,-0.16906273,0.22101724,-0.49143136,-0.49694145,-0.31755733,-0.113452025,-0.017291915,-0.08777023,0.35779262,0.15619206,0.38610578,-0.3068614,-0.42626274,-0.07138296,0.48925745,0.009180698,0.43389606,-0.18168104,0.28613913,-0.37759936,-0.45112303,-0.028883971,-0.10579545,0.00015586772,0.01103425,0.13831162,0.35154057,-0.036758665,0.093608566,-0.23506887,-0.30511528,0.4077324,-0.4551363,0.34130514,0.074478984,-0.29994792,-0.004052211,-0.2536316,-0.39479375,0.30506718,0.0051259813],"link_vals":[0.0,0.0,0.0,10.0,16.0,5.0,0.0,0.0,0.0,0.0,2.0,16.0,13.0,2.0,0.0,0.0,0.0,0.0,7.0,16.0,4.0,0.0,0.0,0.0,0.0,0.0,8.0,16.0,1.0,0.0,0.0,0.0,0.0,0.0,11.0,16.0,10.0,1.0,0.0,0.0,0.0,0.0,13.0,16.0,16.0,13.0,4.0,0.0,0.0,0.0,7.0,16.0,7.0,15.0,14.0,0.0,0.0,0.0,0.0,9.0,16.0,16.0,12.0,0.0],"links":64,"err_sig":1.36456e-27,"correct_answer":null,"cached_output":null,"category":null,"b_weight":0.280186},{"link_weights":[0.46452296,0.38202775,-0.024256082,-0.15056817,-0.28274572,-0.34412983,0.09677822,0.35406327,-0.122522585,-0.0847339,0.3316838,-0.03048911,-0.12053253,-0.40881798,0.013264881,0.038614724,0.18484694,0.09504332,-0.13434663,-0.69899243,-0.028262226,0.0672437,-0.49054316,-0.43824542,-0.16771938,0.36250246,0.0012880856,0.13929658,0.3644027,-0.35707915,-0.033791617,0.052613545,-0.19373655,0.3686215,-0.24297518,0.34560964,-0.18097542,0.11528809,0.21131255,-0.43849313,-0.44576627,0.019557452,0.41812342,-0.349075,-0.14239177,-0.56847125,0.4015595,0.36181465,0.1335299,0.34635833,0.26389265,-0.37481186,-0.032705046,0.39996174,-0.09782835,-0.21833536,0.13316852,0.3270545,0.2273583,-0.3364021,0.41082752,-0.29503554,0.52244896,-0.41911915],"link_vals":[0.0,0.0,0.0,10.0,16.0,5.0,0.0,0.0,0.0,0.0,2.0,16.0,13.0,2.0,0.0,0.0,0.0,0.0,7.0,16.0,4.0,0.0,0.0,0.0,0.0,0.0,8.0,16.0,1.0,0.0,0.0,0.0,0.0,0.0,11.0,16.0,10.0,1.0,0.0,0.0,0.0,0.0,13.0,16.0,16.0,13.0,4.0,0.0,0.0,0.0,7.0,16.0,7.0,15.0,14.0,0.0,0.0,0.0,0.0,9.0,16.0,16.0,12.0,0.0],"links":64,"err_sig":4.851384e-13,"correct_answer":null,"cached_output":null,"category":null,"b_weight":-0.33440626},{"link_weights":[0.25637507,0.2815367,-0.00090210343,-0.44582707,-0.15595864,0.025300907,-0.11255721,0.25405186,0.35182795,-0.23997048,0.2910239,0.30178255,0.34393325,0.21372767,0.47075123,-0.108893454,0.00046300926,-0.015215596,-0.18083513,0.21926045,0.379956,-0.015894918,-0.1275949,-0.08632847,-0.051808726,0.048800975,-0.330669,0.03882822,0.01743329,0.20045912,0.3332565,-0.31066698,0.17143893,-0.16806914,0.12580651,-0.11172169,0.038278565,-0.024626585,0.35605952,0.06358981,-0.26271147,-0.20049264,-0.19887897,-0.08146266,0.055847976,-0.16463484,-0.24164538,-0.041845784,-0.0054986426,-0.31218708,0.49975413,0.4904404,0.15810928,0.49823424,0.2717353,0.18822013,-0.097794175,-0.16325836,-0.43169385,0.03237731,-0.07827282,0.15125614,0.46994156,0.38321576],"link_vals":[0.0,0.0,0.0,10.0,16.0,5.0,0.0,0.0,0.0,0.0,2.0,16.0,13.0,2.0,0.0,0.0,0.0,0.0,7.0,16.0,4.0,0.0,0.0,0.0,0.0,0.0,8.0,16.0,1.0,0.0,0.0,0.0,0.0,0.0,11.0,16.0,10.0,1.0,0.0,0.0,0.0,0.0,13.0,16.0,16.0,13.0,4.0,0.0,0.0,0.0,7.0,16.0,7.0,15.0,14.0,0.0,0.0,0.0,0.0,9.0,16.0,16.0,12.0,0.0],"links":64,"err_sig":0.0,"correct_answer":null,"cached_output":null,"category":null,"b_weight":-0.10985939},{"link_weights":[-0.43935585,0.21235009,0.06709171,-0.001626064,-0.08990984,-0.2731694,-0.36630446,0.14895062,-0.34562117,0.39808926,0.34270528,0.112394914,-0.041632667,0.28253126,0.1109996,-0.037672892,-0.07826585,-0.20561254,-0.30822524,-0.089098446,0.18551026,0.36839682,-0.10638125,-0.44505376,0.19210239,0.21574317,-0.19000937,-0.38807198,-0.2381984,-0.3148246,0.36388117,-0.37015662,0.37769008,-0.22329187,0.091435425,-0.5208142,-0.35885096,-0.32134193,-0.26378182,0.04076934,0.16538881,0.026211465,-0.21073125,-0.19402699,-0.07204815,-0.0052407375,-0.5184645,0.32465458,-0.24287707,0.124522366,0.41236904,0.3917932,-0.20014296,0.0936618,0.14504074,0.29582798,-0.06767448,0.2914582,-0.24715124,0.11954047,0.37056592,-0.03291399,0.2500244,-0.36941263],"link_vals":[0.0,0.0,0.0,10.0,16.0,5.0,0.0,0.0,0.0,0.0,2.0,16.0,13.0,2.0,0.0,0.0,0.0,0.0,7.0,16.0,4.0,0.0,0.0,0.0,0.0,0.0,8.0,16.0,1.0,0.0,0.0,0.0,0.0,0.0,11.0,16.0,10.0,1.0,0.0,0.0,0.0,0.0,13.0,16.0,16.0,13.0,4.0,0.0,0.0,0.0,7.0,16.0,7.0,15.0,14.0,0.0,0.0,0.0,0.0,9.0,16.0,16.0,12.0,0.0],"links":64,"err_sig":-1.3582195e-8,"correct_answer":null,"cached_output":null,"category":null,"b_weight":-0.11155222},{"link_weights":[0.25965405,-0.099245355,0.316786,-0.011278235,-0.076711066,0.19444571,0.19045484,-0.4131304,0.46678698,0.35190147,0.07715465,-0.1498605,-0.22666667,-0.09154754,0.18617068,0.061179537,0.1252455,0.29602432,0.24105412,-0.036837682,-0.0021421842,0.036947515,0.33834368,0.3551868,-0.4773779,-0.23269081,-0.09205349,-0.26859027,0.4242311,0.4262145,-0.017081762,-0.022046939,-0.4119854,0.21542847,0.45627403,-0.06331311,0.37962133,-0.16786021,-0.04790085,-0.28388786,-0.014779126,-0.45589942,0.24394852,0.19799417,-0.27364066,-0.3736433,-0.08488941,0.34145743,-0.11205333,-0.0669695,0.38950855,-0.30313963,0.24512263,0.43557465,-0.2219483,0.4016487,-0.23029387,0.33958304,0.10216563,0.37575108,-0.1379833,0.37273902,0.30544758,0.3005682],"link_vals":[0.0,0.0,0.0,10.0,16.0,5.0,0.0,0.0,0.0,0.0,2.0,16.0,13.0,2.0,0.0,0.0,0.0,0.0,7.0,16.0,4.0,0.0,0.0,0.0,0.0,0.0,8.0,16.0,1.0,0.0,0.0,0.0,0.0,0.0,11.0,16.0,10.0,1.0,0.0,0.0,0.0,0.0,13.0,16.0,16.0,13.0,4.0,0.0,0.0,0.0,7.0,16.0,7.0,15.0,14.0,0.0,0.0,0.0,0.0,9.0,16.0,16.0,12.0,0.0],"links":64,"err_sig":1.4203987e-8,"correct_answer":null,"cached_output":null,"category":null,"b_weight":0.3960119},{"link_weights":[0.22213006,0.39508662,-0.34845668,0.051988874,0.42123827,0.4930237,-0.100090615,0.4872409,-0.04414827,-0.0009865846,-0.12575918,0.11313218,-0.188265,-0.35020462,0.27685457,-0.36739752,-0.4472749,-0.234454,0.24876504,-0.037236825,-0.49587166,-0.3018856,0.48461077,0.27229336,0.011519316,-0.06545258,0.085020564,0.5593988,0.41749275,0.4381393,0.30202642,-0.22075859,0.2917458,0.48738992,0.067673095,0.33921373,0.04268852,-0.043904778,-0.0013515544,0.15196192,0.41774768,0.28532305,0.34521285,-0.28273773,-0.014954125,-0.18883732,-0.014731773,-0.31172997,-0.24628593,0.37981197,0.4536211,-0.22927384,-0.58589137,-0.40341502,0.11613723,0.45294237,-0.33076206,0.18393248,-0.0832703,0.06361802,-0.5000229,-0.473496,0.34200245,-0.3140768],"link_vals":[0.0,0.0,0.0,10.0,16.0,5.0,0.0,0.0,0.0,0.0,2.0,16.0,13.0,2.0,0.0,0.0,0.0,0.0,7.0,16.0,4.0,0.0,0.0,0.0,0.0,0.0,8.0,16.0,1.0,0.0,0.0,0.0,0.0,0.0,11.0,16.0,10.0,1.0,0.0,0.0,0.0,0.0,13.0,16.0,16.0,13.0,4.0,0.0,0.0,0.0,7.0,16.0,7.0,15.0,14.0,0.0,0.0,0.0,0.0,9.0,16.0,16.0,12.0,0.0],"links":64,"err_sig":0.000059986363,"correct_answer":null,"cached_output":null,"category":null,"b_weight":0.36308715},{"link_weights":[-0.078712344,-0.08844887,-0.2506399,-0.37592116,0.19085239,-0.4118926,-0.5052598,0.24262284,0.081401184,0.3709354,-0.18273146,0.34256744,0.010884084,-0.19103271,-0.35137475,0.2053712,0.41756564,0.20743763,-0.04662915,-0.34752786,0.033996914,0.2769832,0.43054488,-0.015281573,0.20847434,0.02294507,0.5943124,-0.43523252,-0.76724046,0.2765117,-0.13714184,0.13313472,0.4704118,-0.4142849,-0.07799039,-0.49589217,-0.07238838,-0.10727401,-0.08000793,0.33918273,-0.0047361497,-0.3283711,0.095126815,-0.1538238,-0.51994115,0.31096074,0.35191318,0.45128995,0.109684676,0.23938894,-0.23027559,0.32874656,-0.3805171,0.13285014,0.34478676,-0.24260159,-0.18433702,0.022941638,0.11649461,0.10786192,0.023291277,-0.06735313,0.31847313,-0.4578997],"link_vals":[0.0,0.0,0.0,10.0,16.0,5.0,0.0,0.0,0.0,0.0,2.0,16.0,13.0,2.0,0.0,0.0,0.0,0.0,7.0,16.0,4.0,0.0,0.0,0.0,0.0,0.0,8.0,16.0,1.0,0.0,0.0,0.0,0.0,0.0,11.0,16.0,10.0,1.0,0.0,0.0,0.0,0.0,13.0,16.0,16.0,13.0,4.0,0.0,0.0,0.0,7.0,16.0,7.0,15.0,14.0,0.0,0.0,0.0,0.0,9.0,16.0,16.0,12.0,0.0],"links":64,"err_sig":5.035985e-8,"correct_answer":null,"cached_output":null,"category":null,"b_weight":0.15417887},{"link_weights":[-0.3774824,-0.2887549,-0.40160704,-0.032028746,0.18382472,-0.06868569,-0.21919468,-0.0874726,0.4448719,0.4077549,0.12737179,-0.112616085,0.108923435,-0.47170982,0.06558493,0.31863064,0.36848128,0.081915855,0.16697527,0.35039887,-0.184376,0.04722264,-0.009994325,-0.05888726,0.13412654,0.046297245,0.2179517,-0.18510143,0.22691162,0.35220435,0.27015862,0.08234429,0.41377115,0.29825717,0.22610195,-0.038604826,-0.1700476,0.32027954,0.0090843355,-0.3797294,0.06480396,0.20834984,-0.32341704,0.41719237,0.30262583,0.3465342,-0.2639784,0.4039101,-0.08958173,0.21382155,-0.16853003,0.3351539,0.31420982,0.35673478,-0.45983925,-0.49899545,0.37031353,0.26871982,0.5143423,0.13085914,0.25345114,0.061472505,0.020567678,0.42555872],"link_vals":[0.0,0.0,0.0,10.0,16.0,5.0,0.0,0.0,0.0,0.0,2.0,16.0,13.0,2.0,0.0,0.0,0.0,0.0,7.0,16.0,4.0,0.0,0.0,0.0,0.0,0.0,8.0,16.0,1.0,0.0,0.0,0.0,0.0,0.0,11.0,16.0,10.0,1.0,0.0,0.0,0.0,0.0,13.0,16.0,16.0,13.0,4.0,0.0,0.0,0.0,7.0,16.0,7.0,15.0,14.0,0.0,0.0,0.0,0.0,9.0,16.0,16.0,12.0,0.0],"links":64,"err_sig":0.0,"correct_answer":null,"cached_output":null,"category":null,"b_weight":-0.37576896},{"link_weights":[0.16560793,-0.45210004,0.20396505,-0.40467528,0.2520131,-0.41420552,0.28300354,-0.46168858,0.3093127,-0.39008117,0.039054923,0.2590806,-0.13675113,-0.05455337,-0.23959798,-0.35367087,0.1379321,-0.17795631,-0.43559363,0.49822932,0.3935823,-0.17435463,-0.50808734,0.3382782,0.035260316,-0.3474061,-0.052377578,0.08083549,0.35384235,-0.5685892,0.03592098,-0.0508052,0.4886273,-0.33249128,0.12577748,-0.16428629,-0.085574165,0.5090079,0.00056897465,-0.4334408,-0.18972418,0.26896638,0.19520913,0.25671574,0.19564863,0.375529,0.5727689,-0.13049564,0.08605414,-0.054843493,-0.568497,-0.3610989,-0.11932779,-0.3310312,0.31656593,0.33392036,-0.06493563,-0.43894604,0.04357648,-0.23294763,0.23397318,0.24027692,0.20840092,-0.15230367],"link_vals":[0.0,0.0,0.0,10.0,16.0,5.0,0.0,0.0,0.0,0.0,2.0,16.0,13.0,2.0,0.0,0.0,0.0,0.0,7.0,16.0,4.0,0.0,0.0,0.0,0.0,0.0,8.0,16.0,1.0,0.0,0.0,0.0,0.0,0.0,11.0,16.0,10.0,1.0,0.0,0.0,0.0,0.0,13.0,16.0,16.0,13.0,4.0,0.0,0.0,0.0,7.0,16.0,7.0,15.0,14.0,0.0,0.0,0.0,0.0,9.0,16.0,16.0,12.0,0.0],"links":64,"err_sig":-0.0,"correct_answer":null,"cached_output":null,"category":null,"b_weight":-0.3682235},{"link_weights":[0.08154559,0.051180772,-0.36925408,-0.41519558,0.37773424,-0.014382153,-0.2702079,-0.1792438,-0.22155178,0.11031328,-0.21061797,0.37426847,0.10858968,-0.031915553,-0.15670991,0.22398591,0.38192654,-0.011882401,-0.027166657,0.35967505,-0.0073913643,0.1556114,-0.30667934,0.47815228,0.18436396,0.3763855,0.062982924,-0.4726051,-0.4236504,-0.49643877,-0.38974842,0.07467151,0.15308988,-0.07519707,-0.17253785,-0.49454972,0.24563688,-0.35042956,-0.1386876,0.39716566,0.042452734,-0.07861442,-0.44374973,-0.1679332,-0.19925126,0.30148372,0.36465856,-0.2071563,-0.2537363,0.37592393,0.26859415,-0.109864525,-0.16024852,0.27981246,-0.42561707,-0.28464437,0.32523358,-0.45360056,0.419642,-0.48025516,-0.39403927,-0.36449054,-0.101627834,-0.093381524],"link_vals":[0.0,0.0,0.0,10.0,16.0,5.0,0.0,0.0,0.0,0.0,2.0,16.0,13.0,2.0,0.0,0.0,0.0,0.0,7.0,16.0,4.0,0.0,0.0,0.0,0.0,0.0,8.0,16.0,1.0,0.0,0.0,0.0,0.0,0.0,11.0,16.0,10.0,1.0,0.0,0.0,0.0,0.0,13.0,16.0,16.0,13.0,4.0,0.0,0.0,0.0,7.0,16.0,7.0,15.0,14.0,0.0,0.0,0.0,0.0,9.0,16.0,16.0,12.0,0.0],"links":64,"err_sig":-2.0252981e-15,"correct_answer":null,"cached_output":null,"category":null,"b_weight":0.10461034},{"link_weights":[0.38064456,0.024115233,0.3508605,-0.14715493,-0.12288242,-0.21432945,0.4804023,-0.43994853,0.18796182,0.07735586,-0.2716145,0.32845065,0.07930308,-0.055461723,0.49436137,-0.075933926,-0.14101203,-0.29885173,0.012441851,-0.32497737,-0.01939395,0.39476293,-0.09701554,-0.38881275,0.11047077,0.31367588,0.39229357,0.17006044,-0.21361554,0.305076,-0.26108292,-0.36978796,-0.19224381,0.30722573,0.1236142,0.0652994,0.034488767,-0.24848717,-0.07943553,-0.27100563,-0.2579984,0.05746287,-0.30293468,0.04341323,0.43930337,0.36243054,-0.111947045,-0.089001134,-0.14393345,0.0041025267,0.28777623,-0.10727873,0.17831291,0.05724134,-0.15801856,-0.27041,-0.04225458,-0.2122572,0.31046563,0.27446026,-0.055295385,0.32553843,-0.40027118,-0.4973014],"link_vals":[0.0,0.0,0.0,10.0,16.0,5.0,0.0,0.0,0.0,0.0,2.0,16.0,13.0,2.0,0.0,0.0,0.0,0.0,7.0,16.0,4.0,0.0,0.0,0.0,0.0,0.0,8.0,16.0,1.0,0.0,0.0,0.0,0.0,0.0,11.0,16.0,10.0,1.0,0.0,0.0,0.0,0.0,13.0,16.0,16.0,13.0,4.0,0.0,0.0,0.0,7.0,16.0,7.0,15.0,14.0,0.0,0.0,0.0,0.0,9.0,16.0,16.0,12.0,0.0],"links":64,"err_sig":5.1120297e-10,"correct_answer":null,"cached_output":null,"category":null,"b_weight":-0.35219574},{"link_weights":[0.33490837,0.45126057,0.42149493,0.23753493,0.48265603,0.082690775,0.021059517,0.30265778,0.03058953,0.21829005,-0.4471207,-0.40748802,-0.33031425,0.4749021,0.07592416,-0.059833124,0.28827852,-0.42562264,-0.5796641,-0.43621185,0.24807256,0.40434274,-0.10414226,-0.29971328,-0.2883656,0.23892687,-0.14989191,-0.33625263,0.06093252,-0.04252469,0.43331292,0.1270699,-0.33764327,-0.2420221,-0.10917292,0.119820744,-0.06778503,-0.04154321,0.098064385,0.1913799,-0.42004275,-0.46825513,0.13272732,-0.25528446,-0.3789483,0.1407109,0.030084176,-0.36972448,0.40463805,-0.14667104,-0.142653,0.09225019,-0.045306556,-0.05984146,-0.48492646,0.46557802,-0.40065122,-0.30814815,0.40109816,-0.056365397,-0.42032218,-0.3649836,0.3519654,-0.19050933],"link_vals":[0.0,0.0,0.0,10.0,16.0,5.0,0.0,0.0,0.0,0.0,2.0,16.0,13.0,2.0,0.0,0.0,0.0,0.0,7.0,16.0,4.0,0.0,0.0,0.0,0.0,0.0,8.0,16.0,1.0,0.0,0.0,0.0,0.0,0.0,11.0,16.0,10.0,1.0,0.0,0.0,0.0,0.0,13.0,16.0,16.0,13.0,4.0,0.0,0.0,0.0,7.0,16.0,7.0,15.0,14.0,0.0,0.0,0.0,0.0,9.0,16.0,16.0,12.0,0.0],"links":64,"err_sig":8.52166e-21,"correct_answer":null,"cached_output":null,"category":null,"b_weight":0.48477513},{"link_weights":[0.3375256,0.4193444,-0.3606986,0.40541154,0.0464215,-0.38876927,0.110855155,0.11560573,-0.4072982,-0.33965138,-0.30212516,0.4809515,0.3034345,0.2176187,0.18469828,0.14761242,-0.24056865,-0.3341351,-0.3249364,0.44414988,-0.27728158,-0.093728155,-0.46698692,-0.18616232,-0.3400725,0.32729676,0.19145614,0.101381816,0.44358987,0.26800463,-0.45787036,0.3248694,-0.020295143,0.063461065,0.32785326,0.06531889,0.5706861,0.012732607,0.04024365,-0.18052435,0.32482883,-0.3706193,0.17798825,-0.29085594,-0.21497434,0.14545737,0.27302197,0.29283762,-0.2764885,-0.20962484,-0.2287925,0.24892561,0.31719252,-0.07247874,0.039417014,0.07915334,0.31119812,0.14006636,-0.17481075,0.3841374,0.19150741,0.28454593,-0.46064812,-0.16358443],"link_vals":[0.0,0.0,0.0,10.0,16.0,5.0,0.0,0.0,0.0,0.0,2.0,16.0,13.0,2.0,0.0,0.0,0.0,0.0,7.0,16.0,4.0,0.0,0.0,0.0,0.0,0.0,8.0,16.0,1.0,0.0,0.0,0.0,0.0,0.0,11.0,16.0,10.0,1.0,0.0,0.0,0.0,0.0,13.0,16.0,16.0,13.0,4.0,0.0,0.0,0.0,7.0,16.0,7.0,15.0,14.0,0.0,0.0,0.0,0.0,9.0,16.0,16.0,12.0,0.0],"links":64,"err_sig":-0.0,"correct_answer":null,"cached_output":null,"category":null,"b_weight":-0.02034543},{"link_weights":[-0.4369222,-0.12960583,-0.19573924,0.3884706,-0.18822695,-0.29367328,-0.17992157,0.1955763,-0.15258704,-0.092019886,0.20878138,-0.26329523,0.06347765,0.41093138,-0.075581014,0.33255655,-0.014742249,0.44720867,0.33931372,0.51802456,-0.07201853,0.13636243,-0.19334039,-0.19027783,-0.24452448,-0.19277227,0.23842788,0.28637588,-0.17103554,-0.15955266,-0.23980221,-0.024544813,0.13840012,0.5310071,-0.28512672,-0.2195826,0.03746258,0.08494503,-0.3609771,-0.34085202,-0.18732275,-0.41054627,0.24042863,-0.2007642,-0.04599033,-0.2562468,0.17257126,0.22420898,-0.3990817,0.4892901,-0.38093948,-0.029603535,0.2694598,0.50134575,-0.16556661,-0.00638989,-0.073221445,0.4515789,-0.1745289,0.27484864,0.45423013,0.23661327,-0.16880776,-0.19772205],"link_vals":[0.0,0.0,0.0,10.0,16.0,5.0,0.0,0.0,0.0,0.0,2.0,16.0,13.0,2.0,0.0,0.0,0.0,0.0,7.0,16.0,4.0,0.0,0.0,0.0,0.0,0.0,8.0,16.0,1.0,0.0,0.0,0.0,0.0,0.0,11.0,16.0,10.0,1.0,0.0,0.0,0.0,0.0,13.0,16.0,16.0,13.0,4.0,0.0,0.0,0.0,7.0,16.0,7.0,15.0,14.0,0.0,0.0,0.0,0.0,9.0,16.0,16.0,12.0,0.0],"links":64,"err_sig":-0.0,"correct_answer":null,"cached_output":null,"category":null,"b_weight":-0.036123004},{"link_weights":[-0.25162137,0.33859822,0.24466114,0.201793,-0.43222594,0.052825794,-0.11727389,0.05388187,0.35774887,0.14777891,-0.12885234,-0.35382962,-0.23211606,0.38399282,-0.22097778,0.122095115,0.40752912,-0.31374314,-0.4065909,0.45615652,0.17117253,-0.41324624,0.15356338,0.29279336,-0.4066589,-0.16323532,-0.3066853,0.30352014,-0.009758262,0.09107696,0.2434634,0.35518783,0.30915296,-0.36994973,-0.1882423,0.30498904,0.20034443,-0.17234902,0.2785534,-0.31280792,-0.050871257,-0.41623253,0.14739,-0.19826901,-0.18753733,0.14720923,-0.5043421,-0.4654796,0.22209638,0.14075927,0.3043713,-0.16316907,-0.32730183,-0.14877531,-0.42810488,-0.16297302,0.24866807,-0.47832444,-0.010512622,-0.15495116,-0.09876579,-0.4944956,-0.2327764,-0.18359521],"link_vals":[0.0,0.0,0.0,10.0,16.0,5.0,0.0,0.0,0.0,0.0,2.0,16.0,13.0,2.0,0.0,0.0,0.0,0.0,7.0,16.0,4.0,0.0,0.0,0.0,0.0,0.0,8.0,16.0,1.0,0.0,0.0,0.0,0.0,0.0,11.0,16.0,10.0,1.0,0.0,0.0,0.0,0.0,13.0,16.0,16.0,13.0,4.0,0.0,0.0,0.0,7.0,16.0,7.0,15.0,14.0,0.0,0.0,0.0,0.0,9.0,16.0,16.0,12.0,0.0],"links":64,"err_sig":-2.1749862e-16,"correct_answer":null,"cached_output":null,"category":null,"b_weight":-0.40230384},{"link_weights":[0.057332635,0.021109154,0.41184315,0.51724154,0.21036404,-0.15206583,-0.00266277,-0.08287339,-0.40238848,-0.2896472,0.2616283,0.17449431,0.28599766,0.18509077,-0.3335321,-0.052023716,0.42226905,0.29186562,-0.5490652,-0.67873114,-0.32972813,-0.5068454,-0.16729736,0.08838216,-0.32143974,-0.08700593,-0.5998285,0.0803511,0.29619214,-0.110993125,0.15416405,-0.37350506,-0.013962385,0.1851666,0.116383135,-0.40607974,0.31626162,0.37099186,0.09213389,0.41197634,0.0067758183,-0.3595605,-0.071514554,-0.05577304,0.02186586,-0.43546718,-0.29665616,0.102888845,-0.49578267,-0.3056945,0.02676001,-0.29091656,0.25930068,-0.053505372,-0.23590292,-0.10971808,0.27788818,-0.4579976,0.4735994,-0.2473316,-0.08723096,-0.040860772,0.110761255,0.28218848],"link_vals":[0.0,0.0,0.0,10.0,16.0,5.0,0.0,0.0,0.0,0.0,2.0,16.0,13.0,2.0,0.0,0.0,0.0,0.0,7.0,16.0,4.0,0.0,0.0,0.0,0.0,0.0,8.0,16.0,1.0,0.0,0.0,0.0,0.0,0.0,11.0,16.0,10.0,1.0,0.0,0.0,0.0,0.0,13.0,16.0,16.0,13.0,4.0,0.0,0.0,0.0,7.0,16.0,7.0,15.0,14.0,0.0,0.0,0.0,0.0,9.0,16.0,16.0,12.0,0.0],"links":64,"err_sig":3.7223097e-14,"correct_answer":null,"cached_output":null,"category":null,"b_weight":-0.41487992},{"link_weights":[0.42600667,0.1568907,-0.25554922,-0.27903152,-0.038181733,-0.6885294,-0.56634957,0.18836288,0.20598517,0.15083499,0.30086845,-0.20296185,-0.29188177,0.30504787,-0.17716132,0.07100593,0.111405954,0.018206796,0.277455,-0.12883374,0.4345031,0.24658582,-0.29982293,0.45729643,0.44064453,-0.26586455,0.07365763,0.11314482,0.48604414,0.48795497,-0.1268033,-0.2394096,-0.24368691,0.17983481,0.1856827,-0.30623704,-0.008548964,-0.4608213,-0.5858048,0.31678855,-0.1569317,-0.46760085,0.26728797,0.2306571,-0.34621975,-0.24034536,-0.49522668,-0.11798476,0.27546608,0.097104624,-0.18042058,0.13325176,0.2749914,0.04482401,-0.16097699,-0.40434027,0.18824613,0.31219274,-0.50047994,0.31118625,-0.17710286,0.00041413502,0.0457429,0.33592898],"link_vals":[0.0,0.0,0.0,10.0,16.0,5.0,0.0,0.0,0.0,0.0,2.0,16.0,13.0,2.0,0.0,0.0,0.0,0.0,7.0,16.0,4.0,0.0,0.0,0.0,0.0,0.0,8.0,16.0,1.0,0.0,0.0,0.0,0.0,0.0,11.0,16.0,10.0,1.0,0.0,0.0,0.0,0.0,13.0,16.0,16.0,13.0,4.0,0.0,0.0,0.0,7.0,16.0,7.0,15.0,14.0,0.0,0.0,0.0,0.0,9.0,16.0,16.0,12.0,0.0],"links":64,"err_sig":-5.566001e-9,"correct_answer":null,"cached_output":null,"category":null,"b_weight":0.02050417},{"link_weights":[0.3391781,-0.07087638,-0.3678839,0.17344913,0.3759894,0.30655617,0.35299873,-0.24598862,-0.4298257,0.5124815,-0.3647596,0.14915597,0.609842,0.5861242,0.08522563,-0.3485002,0.036659062,-0.19557774,-0.3224112,0.32454684,-0.2723787,-0.1642425,-0.3906565,-0.12406509,0.24506772,-0.52443254,-0.21104112,0.2036057,-0.07251818,-0.016263748,-0.106790334,-0.07126342,0.08596928,0.12388251,0.017997695,0.55476105,-0.31378523,-0.21139383,-0.37238184,-0.25938463,-0.46639132,-0.41707742,-0.16139229,-0.15843925,0.36303738,-0.06944563,-0.19401932,-0.4034136,0.23210727,0.05638451,-0.07460993,-0.32285485,0.488434,0.37193337,-0.30447757,-0.36368555,-0.35505843,-0.08483579,0.5915342,0.074162416,0.4484314,0.08315483,0.33548564,-0.1708923],"link_vals":[0.0,0.0,0.0,10.0,16.0,5.0,0.0,0.0,0.0,0.0,2.0,16.0,13.0,2.0,0.0,0.0,0.0,0.0,7.0,16.0,4.0,0.0,0.0,0.0,0.0,0.0,8.0,16.0,1.0,0.0,0.0,0.0,0.0,0.0,11.0,16.0,10.0,1.0,0.0,0.0,0.0,0.0,13.0,16.0,16.0,13.0,4.0,0.0,0.0,0.0,7.0,16.0,7.0,15.0,14.0,0.0,0.0,0.0,0.0,9.0,16.0,16.0,12.0,0.0],"links":64,"err_sig":-0.0,"correct_answer":null,"cached_output":null,"category":null,"b_weight":-0.3799425},{"link_weights":[0.1884805,-0.42189813,0.09468941,0.37613046,-0.35946783,0.19050962,0.2751034,0.15224317,0.32590997,0.3198207,-0.42408702,0.2334461,0.08351932,-0.5549916,0.24352236,0.077540524,-0.40821874,-0.30787396,-0.4240578,0.012487268,0.5169254,-0.3138182,0.1499559,-0.3415399,0.25939745,0.09759108,0.011047174,0.26774594,-0.06752604,0.124403246,-0.22891079,0.34208444,0.28597236,-0.18559006,0.11978356,0.37217376,-0.18177752,-0.273208,-0.08680566,-0.19150782,-0.39704782,0.25134325,-0.093044505,0.37778413,0.5799003,-0.19037396,-0.31700033,-0.087205164,0.4786336,0.1778445,0.13810644,0.050595954,-0.09248485,-0.04602452,0.21321692,0.31846124,0.34425235,-0.18446763,0.39380902,-0.23626165,-0.31655914,0.2184856,-0.067578316,-0.38587308],"link_vals":[0.0,0.0,0.0,10.0,16.0,5.0,0.0,0.0,0.0,0.0,2.0,16.0,13.0,2.0,0.0,0.0,0.0,0.0,7.0,16.0,4.0,0.0,0.0,0.0,0.0,0.0,8.0,16.0,1.0,0.0,0.0,0.0,0.0,0.0,11.0,16.0,10.0,1.0,0.0,0.0,0.0,0.0,13.0,16.0,16.0,13.0,4.0,0.0,0.0,0.0,7.0,16.0,7.0,15.0,14.0,0.0,0.0,0.0,0.0,9.0,16.0,16.0,12.0,0.0],"links":64,"err_sig":-0.0,"correct_answer":null,"cached_output":null,"category":null,"b_weight":-0.44656295},{"link_weights":[0.16767883,0.15595628,0.122407585,-0.35590503,0.12756248,0.20406105,-0.3029411,0.3231075,-0.37124202,0.32604387,0.23362379,-0.41465482,-0.26872802,-0.5657853,0.27761412,0.22143088,-0.4021793,-0.09858969,-0.5837304,0.011416171,0.4657153,0.21485694,0.13465285,-0.13818929,-0.42390707,0.413617,-0.54367834,0.02837983,0.32036635,-0.029681044,-0.46365005,-0.3714988,0.238469,0.14610545,0.46688664,0.21857832,0.54172957,0.054403786,-0.43656677,-0.061953425,0.24867032,0.32491064,0.054342072,0.576363,0.09126583,-0.43584576,0.13509317,-0.17774287,0.1620813,0.36937997,0.31467634,0.30511883,0.3571551,0.32948992,0.37754378,0.43137464,0.4420961,0.19966683,-0.4007093,-0.34985265,-0.28744146,0.18924227,-0.19104631,0.40514225],"link_vals":[0.0,0.0,0.0,10.0,16.0,5.0,0.0,0.0,0.0,0.0,2.0,16.0,13.0,2.0,0.0,0.0,0.0,0.0,7.0,16.0,4.0,0.0,0.0,0.0,0.0,0.0,8.0,16.0,1.0,0.0,0.0,0.0,0.0,0.0,11.0,16.0,10.0,1.0,0.0,0.0,0.0,0.0,13.0,16.0,16.0,13.0,4.0,0.0,0.0,0.0,7.0,16.0,7.0,15.0,14.0,0.0,0.0,0.0,0.0,9.0,16.0,16.0,12.0,0.0],"links":64,"err_sig":-2.8908662e-11,"correct_answer":null,"cached_output":null,"category":null,"b_weight":0.24997538},{"link_weights":[-0.14580858,0.26483363,0.15741453,-0.039750963,0.4328826,-0.14130141,0.18766835,-0.43115222,0.14714888,-0.08313101,-0.28635192,0.09753649,-0.29911864,-0.10906765,-0.22794761,0.4431842,-0.08197824,-0.22556765,0.27250046,0.28534228,-0.4351216,-0.5263007,0.15557945,-0.12330144,0.22228368,0.36257643,0.44236645,0.33051708,-0.7067264,0.28630418,-0.21383196,0.18494394,-0.42168906,0.25834355,0.5478806,-0.21583362,-0.24331838,0.05073687,0.4760317,0.25886214,-0.16603644,-0.35224766,0.27630934,-0.10024577,-0.25943875,0.22563694,0.14340246,0.490338,-0.3678474,-0.3117168,0.13157812,-0.26091456,0.18766496,-0.13074306,0.15102397,-0.28619432,-0.0039571524,0.46245986,0.26086056,-0.29815978,-0.24758881,-0.35480982,-0.05336597,-0.24809042],"link_vals":[0.0,0.0,0.0,10.0,16.0,5.0,0.0,0.0,0.0,0.0,2.0,16.0,13.0,2.0,0.0,0.0,0.0,0.0,7.0,16.0,4.0,0.0,0.0,0.0,0.0,0.0,8.0,16.0,1.0,0.0,0.0,0.0,0.0,0.0,11.0,16.0,10.0,1.0,0.0,0.0,0.0,0.0,13.0,16.0,16.0,13.0,4.0,0.0,0.0,0.0,7.0,16.0,7.0,15.0,14.0,0.0,0.0,0.0,0.0,9.0,16.0,16.0,12.0,0.0],"links":64,"err_sig":0.00024966287,"correct_answer":null,"cached_output":null,"category":null,"b_weight":0.081564754},{"link_weights":[-0.17957819,-0.13390271,-0.4136635,-0.26189396,0.038664762,-0.15352799,-0.5274191,0.4581255,0.026507411,0.15342884,-0.39959484,-0.36674702,-0.2653182,-0.41881126,-0.046467558,-0.16268077,0.20321625,0.38443863,0.031893857,-0.076887995,-0.22070643,0.29099113,0.45179075,-0.39055535,0.09665893,0.35931858,-0.024680134,-0.44960734,0.20226611,0.09650029,0.013736926,0.0895463,0.008262634,0.1072182,0.46568492,0.38468683,0.080811225,-0.06875254,0.015306114,0.19200158,0.3941638,0.42949808,0.40332142,0.38489187,-0.13043772,0.33444554,0.21869975,-0.40054312,-0.43595448,-0.18977214,0.18465441,-0.4338293,0.15956251,0.4340404,-0.29692766,0.4166497,0.43461713,0.27919617,-0.5329949,-0.2986189,0.4300803,0.075420745,-0.3198928,-0.0050769993],"link_vals":[0.0,0.0,0.0,10.0,16.0,5.0,0.0,0.0,0.0,0.0,2.0,16.0,13.0,2.0,0.0,0.0,0.0,0.0,7.0,16.0,4.0,0.0,0.0,0.0,0.0,0.0,8.0,16.0,1.0,0.0,0.0,0.0,0.0,0.0,11.0,16.0,10.0,1.0,0.0,0.0,0.0,0.0,13.0,16.0,16.0,13.0,4.0,0.0,0.0,0.0,7.0,16.0,7.0,15.0,14.0,0.0,0.0,0.0,0.0,9.0,16.0,16.0,12.0,0.0],"links":64,"err_sig":0.0002694729,"correct_answer":null,"cached_output":null,"category":null,"b_weight":-0.47527474},{"link_weights":[0.33972633,0.5022006,-0.392146,0.061953057,0.13506246,0.20604591,-0.29663804,-0.21107991,0.30325538,-0.265353,-0.18136312,0.0866196,0.46688592,0.2373181,0.42466414,0.007856455,0.18662883,-0.17333107,0.26921293,0.16906045,0.2285284,0.37603197,-0.4899402,0.1023073,-0.45577234,-0.49336132,0.17626108,-0.23543298,-0.0805363,-0.22964835,-0.2955622,-0.48050052,0.43699315,0.15447375,0.11109734,0.18884143,-0.40097344,0.3822293,-0.5353472,0.42403662,-0.3851291,0.25264233,0.024311885,-0.23924327,-0.38701162,0.2785236,-0.057046372,0.35252458,-0.2002796,-0.5002104,0.29273033,-0.42206365,-0.40801975,0.018259069,-0.17404017,0.42963618,-0.19609153,-0.1165697,0.33218363,0.56715304,-0.28152835,-0.20008601,0.31815863,0.24876676],"link_vals":[0.0,0.0,0.0,10.0,16.0,5.0,0.0,0.0,0.0,0.0,2.0,16.0,13.0,2.0,0.0,0.0,0.0,0.0,7.0,16.0,4.0,0.0,0.0,0.0,0.0,0.0,8.0,16.0,1.0,0.0,0.0,0.0,0.0,0.0,11.0,16.0,10.0,1.0,0.0,0.0,0.0,0.0,13.0,16.0,16.0,13.0,4.0,0.0,0.0,0.0,7.0,16.0,7.0,15.0,14.0,0.0,0.0,0.0,0.0,9.0,16.0,16.0,12.0,0.0],"links":64,"err_sig":0.000013138411,"correct_answer":null,"cached_output":null,"category":null,"b_weight":0.47664687},{"link_weights":[-0.34490955,-0.1406342,0.28220004,-0.41180843,-0.4219631,-0.14894186,0.12064846,-0.0032361066,0.049956772,-0.01761592,0.104267,0.10320802,-0.040621605,0.15707172,-0.2341811,0.2427379,0.15011127,0.1203094,-0.62765074,-0.041947674,0.060552455,-0.37293163,0.20728606,-0.3698036,-0.32815155,0.037757218,0.044554345,-0.41096473,0.21657102,0.084565885,0.47440138,0.18289605,-0.4306619,-0.18091251,0.12485238,0.20894276,0.41913375,0.34554005,-0.17309907,-0.456401,0.1308997,-0.12273264,-0.07309843,0.14920396,0.18743174,-0.25480694,-0.3484955,-0.043075368,0.26986277,0.2490543,0.26417843,0.3621382,0.47968945,-0.37848952,-0.42929778,-0.038389165,-0.32018614,-0.23068154,-0.28439942,-0.3368252,-0.06982733,0.20716265,0.07641687,0.027167965],"link_vals":[0.0,0.0,0.0,10.0,16.0,5.0,0.0,0.0,0.0,0.0,2.0,16.0,13.0,2.0,0.0,0.0,0.0,0.0,7.0,16.0,4.0,0.0,0.0,0.0,0.0,0.0,8.0,16.0,1.0,0.0,0.0,0.0,0.0,0.0,11.0,16.0,10.0,1.0,0.0,0.0,0.0,0.0,13.0,16.0,16.0,13.0,4.0,0.0,0.0,0.0,7.0,16.0,7.0,15.0,14.0,0.0,0.0,0.0,0.0,9.0,16.0,16.0,12.0,0.0],"links":64,"err_sig":-9.664902e-9,"correct_answer":null,"cached_output":null,"category":null,"b_weight":0.159305},{"link_weights":[0.46045434,0.14203428,-0.28816846,0.4491412,0.1702473,-0.3925403,-0.19086121,-0.31402528,0.013511494,0.26307118,0.027194995,-0.018105675,-0.15411912,-0.05523893,0.2685282,-0.387745,0.14407527,-0.03375872,0.039395183,-0.013830441,-0.26178178,0.21010178,-0.23880008,0.41236645,-0.38832456,0.11326754,0.007043389,-0.19394735,0.14890717,-0.2031578,-0.13320442,-0.14027536,-0.08641711,0.17829317,-0.44485414,-0.5007077,-0.5590758,0.037518054,-0.15082332,0.49590254,0.20559509,-0.15479693,-0.24161837,-0.17909692,-0.14525771,-0.04375013,-0.38206175,-0.04665845,-0.08546434,0.2772044,-0.19177173,-0.39220053,0.39656347,0.49307844,0.47404277,0.07741584,0.41451803,-0.079751134,0.1050217,0.4550607,0.3525682,0.12374244,-0.0013199255,0.33811703],"link_vals":[0.0,0.0,0.0,10.0,16.0,5.0,0.0,0.0,0.0,0.0,2.0,16.0,13.0,2.0,0.0,0.0,0.0,0.0,7.0,16.0,4.0,0.0,0.0,0.0,0.0,0.0,8.0,16.0,1.0,0.0,0.0,0.0,0.0,0.0,11.0,16.0,10.0,1.0,0.0,0.0,0.0,0.0,13.0,16.0,16.0,13.0,4.0,0.0,0.0,0.0,7.0,16.0,7.0,15.0,14.0,0.0,0.0,0.0,0.0,9.0,16.0,16.0,12.0,0.0],"links":64,"err_sig":1.3019387e-7,"correct_answer":null,"cached_output":null,"category":null,"b_weight":0.23484619},{"link_weights":[-0.1986177,0.11772359,-0.40900669,0.1986888,0.2044751,0.49247533,-0.20177902,0.23937841,0.110062264,0.088164404,-0.13491149,0.23634422,0.39291516,0.454173,-0.0674529,-0.022233877,0.41498718,-0.04151131,0.3170504,-0.22870775,0.21827255,-0.006790832,0.12779777,-0.22690187,-0.06470072,0.28564283,-0.12091934,0.4387455,0.29526913,0.5133424,0.39062864,-0.26930606,-0.10604662,0.060849033,0.4372563,-0.31894472,-0.030370995,-0.3145589,-0.103839606,-0.22390687,-0.30601388,-0.402354,-0.43685505,0.013667313,-0.4435187,0.06634002,0.43197215,0.2859716,-0.15386547,-0.36397412,-0.44401056,-0.15697086,0.35667577,-0.43955344,0.2790867,-0.33131307,0.13552845,-0.037422985,-0.3476304,0.14671555,-0.4622536,-0.058828346,-0.617329,-0.2768953],"link_vals":[0.0,0.0,0.0,10.0,16.0,5.0,0.0,0.0,0.0,0.0,2.0,16.0,13.0,2.0,0.0,0.0,0.0,0.0,7.0,16.0,4.0,0.0,0.0,0.0,0.0,0.0,8.0,16.0,1.0,0.0,0.0,0.0,0.0,0.0,11.0,16.0,10.0,1.0,0.0,0.0,0.0,0.0,13.0,16.0,16.0,13.0,4.0,0.0,0.0,0.0,7.0,16.0,7.0,15.0,14.0,0.0,0.0,0.0,0.0,9.0,16.0,16.0,12.0,0.0],"links":64,"err_sig":-9.393813e-7,"correct_answer":null,"cached_output":null,"category":null,"b_weight":0.4770319},{"link_weights":[-0.26755977,-0.16953664,0.4693728,-0.44563532,-0.058838706,-0.2876887,-0.028646667,0.32624343,0.043475732,-0.3528756,-0.33211166,0.21936512,-0.3664986,0.3373207,0.19064279,-0.448135,-0.4052474,0.28618035,-0.4179774,0.07879476,-0.35504416,-0.032395687,0.30211875,-0.27170372,0.042015657,-0.5225897,0.021882642,0.32536232,0.13096848,0.019564958,-0.08008245,-0.0776013,-0.42019156,-0.31536624,0.066809125,0.54176444,0.27023387,0.35157537,0.18427259,-0.16003644,0.25945592,-0.46880984,-0.43624628,0.51146096,0.56481177,0.33014867,-0.28185076,-0.37753266,-0.43833226,-0.08191134,-0.43155226,-0.393275,-0.2491846,0.21956712,-0.32499015,0.4271685,0.45145914,-0.10007121,0.25079608,0.2554318,0.25338152,0.45977485,0.23105644,0.49471027],"link_vals":[0.0,0.0,0.0,10.0,16.0,5.0,0.0,0.0,0.0,0.0,2.0,16.0,13.0,2.0,0.0,0.0,0.0,0.0,7.0,16.0,4.0,0.0,0.0,0.0,0.0,0.0,8.0,16.0,1.0,0.0,0.0,0.0,0.0,0.0,11.0,16.0,10.0,1.0,0.0,0.0,0.0,0.0,13.0,16.0,16.0,13.0,4.0,0.0,0.0,0.0,7.0,16.0,7.0,15.0,14.0,0.0,0.0,0.0,0.0,9.0,16.0,16.0,12.0,0.0],"links":64,"err_sig":0.0,"correct_answer":null,"cached_output":null,"category":null,"b_weight":-0.17676924},{"link_weights":[-0.34591162,-0.2539281,0.18153097,0.12328665,0.19914633,0.17026582,0.34433272,-0.18553978,0.11997783,0.08290046,0.39537764,0.05463774,0.28078526,-0.5343519,0.080297366,-0.12656967,-0.26902768,0.40935937,-0.1419041,-0.3921664,-0.029378913,-0.71229607,0.03258606,0.010925005,0.44582713,0.336481,0.1111663,0.51876,0.09670749,0.37306952,-0.032217313,-0.42480624,-0.3185969,-0.41269165,-0.40147385,0.093453765,0.31997147,-0.16057132,0.0035078563,-0.2895062,0.27477133,0.15823081,0.24886766,0.3557036,0.05954575,0.21496165,0.42599717,0.3411746,-0.3721243,-0.34318727,-0.08896429,-0.0058631357,0.14713305,-0.26959693,-0.08622147,0.25822207,0.04314404,-0.16182391,-0.17446038,-0.14197427,-0.2405935,-0.1653824,-0.089904934,0.2681692],"link_vals":[0.0,0.0,0.0,10.0,16.0,5.0,0.0,0.0,0.0,0.0,2.0,16.0,13.0,2.0,0.0,0.0,0.0,0.0,7.0,16.0,4.0,0.0,0.0,0.0,0.0,0.0,8.0,16.0,1.0,0.0,0.0,0.0,0.0,0.0,11.0,16.0,10.0,1.0,0.0,0.0,0.0,0.0,13.0,16.0,16.0,13.0,4.0,0.0,0.0,0.0,7.0,16.0,7.0,15.0,14.0,0.0,0.0,0.0,0.0,9.0,16.0,16.0,12.0,0.0],"links":64,"err_sig":2.0406503e-8,"correct_answer":null,"cached_output":null,"category":null,"b_weight":-0.49580908},{"link_weights":[0.08848822,-0.46249607,0.32084408,-0.35339108,0.15911533,0.25273335,0.44920406,0.41275346,0.32757065,0.24729072,-0.09647084,0.44120067,-0.12668401,-0.33696213,0.25884524,-0.13993858,-0.25419095,0.41018465,-0.38284442,-0.20883538,-0.35713255,-0.5649853,-0.13488713,-0.18664603,0.49699813,-0.035227235,0.34964514,-0.34662956,0.18930073,-0.4609221,0.35556158,0.29269147,-0.10803973,-0.084422156,0.042765614,-0.10548987,0.12916656,-0.40595755,-0.4712258,-0.30820107,0.006456117,-0.011851192,0.2189829,-0.0019194279,0.04513836,-0.23254882,-0.16176786,0.22817084,-0.11423164,-0.26646048,-0.37336206,0.35594818,-0.099486805,0.37421855,-0.037644394,-0.052461207,0.33545774,-0.2579664,0.35570616,0.24646291,0.12191764,0.5307214,0.47791085,0.18814838],"link_vals":[0.0,0.0,0.0,10.0,16.0,5.0,0.0,0.0,0.0,0.0,2.0,16.0,13.0,2.0,0.0,0.0,0.0,0.0,7.0,16.0,4.0,0.0,0.0,0.0,0.0,0.0,8.0,16.0,1.0,0.0,0.0,0.0,0.0,0.0,11.0,16.0,10.0,1.0,0.0,0.0,0.0,0.0,13.0,16.0,16.0,13.0,4.0,0.0,0.0,0.0,7.0,16.0,7.0,15.0,14.0,0.0,0.0,0.0,0.0,9.0,16.0,16.0,12.0,0.0],"links":64,"err_sig":0.0,"correct_answer":null,"cached_output":null,"category":null,"b_weight":-0.20548427},{"link_weights":[-0.37688267,-0.3749422,0.47350186,-0.3679023,0.34103155,0.28924397,0.17702657,-0.37614483,0.47117567,0.4337811,-0.037853442,-0.09749554,0.35732096,0.40633208,0.37830287,-0.330159,0.12233198,-0.38641787,0.3249035,0.42724875,0.28844318,0.29040188,0.02178947,-0.1545782,-0.06280279,-0.17035395,0.42262998,0.45747653,0.08710571,-0.30662182,-0.45181015,0.14049946,0.1931895,0.059901886,-0.19328217,0.3534966,0.027629655,-0.055087514,-0.06354885,-0.06301749,0.047554232,0.43952817,-0.17203516,-0.30205026,0.32627717,-0.29956523,0.21582855,0.4828105,0.2064876,-0.3699386,-0.28332502,-0.42372707,0.017139174,0.21295428,0.39518544,0.37334147,-0.24913585,-0.2463923,0.4761626,0.3734205,0.04467317,0.09523639,0.0030340992,0.207427],"link_vals":[0.0,0.0,0.0,10.0,16.0,5.0,0.0,0.0,0.0,0.0,2.0,16.0,13.0,2.0,0.0,0.0,0.0,0.0,7.0,16.0,4.0,0.0,0.0,0.0,0.0,0.0,8.0,16.0,1.0,0.0,0.0,0.0,0.0,0.0,11.0,16.0,10.0,1.0,0.0,0.0,0.0,0.0,13.0,16.0,16.0,13.0,4.0,0.0,0.0,0.0,7.0,16.0,7.0,15.0,14.0,0.0,0.0,0.0,0.0,9.0,16.0,16.0,12.0,0.0],"links":64,"err_sig":0.0,"correct_answer":null,"cached_output":null,"category":null,"b_weight":-0.23420714},{"link_weights":[-0.393798,-0.016930696,-0.42228997,-0.3451839,-0.071563095,-0.37463173,-0.15155809,-0.28798294,-0.030787645,-0.35444197,0.04888517,-0.39198753,-0.43432617,-0.2621914,0.11274126,-0.41531757,-0.015799573,-0.3185797,0.348447,-0.08509179,0.34797543,0.5096212,0.18660259,-0.46415493,0.37634113,0.3041903,0.43506834,0.24495533,-0.4019453,0.2594135,-0.03147764,-0.06463501,0.2781681,0.3344947,-0.47138652,-0.15291494,0.12755334,0.4943593,0.19180982,0.08628178,0.32924202,-0.27455637,-0.40506664,0.0864114,0.1573744,-0.060329795,0.012242935,-0.47287992,-0.2566791,-0.43155587,-0.32878768,-0.23470953,-0.22443159,-0.2541313,-0.27768314,0.14545614,-0.3300463,-0.18459313,0.1258187,-0.20403175,-0.185691,0.24286292,0.16251814,-0.11210473],"link_vals":[0.0,0.0,0.0,10.0,16.0,5.0,0.0,0.0,0.0,0.0,2.0,16.0,13.0,2.0,0.0,0.0,0.0,0.0,7.0,16.0,4.0,0.0,0.0,0.0,0.0,0.0,8.0,16.0,1.0,0.0,0.0,0.0,0.0,0.0,11.0,16.0,10.0,1.0,0.0,0.0,0.0,0.0,13.0,16.0,16.0,13.0,4.0,0.0,0.0,0.0,7.0,16.0,7.0,15.0,14.0,0.0,0.0,0.0,0.0,9.0,16.0,16.0,12.0,0.0],"links":64,"err_sig":-4.1444065e-17,"correct_answer":null,"cached_output":null,"category":null,"b_weight":0.1506529},{"link_weights":[-0.38886082,0.09226048,-0.16991545,-0.41191828,-0.22362809,-0.052468576,-0.16595976,0.33956942,0.47321558,-0.4009355,-0.0068504363,-0.18281187,-0.25956494,0.44794008,-0.12135561,-0.2604753,0.32540166,0.019725893,-0.47888356,0.48025396,0.098758064,-0.46511418,-0.41931492,-0.2325201,-0.37013698,0.21356371,0.1009854,-0.22117656,0.069922306,0.060759418,-0.35429406,0.39556825,0.16233122,-0.46652228,0.023833832,-0.3489103,-0.27117807,0.20328844,-0.33476412,-0.03124082,-0.1828607,-0.29177514,-0.24375209,-0.41160405,0.14028053,-0.08080107,-0.2264244,-0.37036264,0.10468259,0.21685448,0.42941105,-0.16284548,0.40785265,-0.45660305,0.2915518,0.17768405,0.09235394,0.10012215,0.28768936,0.0336543,-0.22615837,-0.090130195,-0.025447285,0.21121995],"link_vals":[0.0,0.0,0.0,10.0,16.0,5.0,0.0,0.0,0.0,0.0,2.0,16.0,13.0,2.0,0.0,0.0,0.0,0.0,7.0,16.0,4.0,0.0,0.0,0.0,0.0,0.0,8.0,16.0,1.0,0.0,0.0,0.0,0.0,0.0,11.0,16.0,10.0,1.0,0.0,0.0,0.0,0.0,13.0,16.0,16.0,13.0,4.0,0.0,0.0,0.0,7.0,16.0,7.0,15.0,14.0,0.0,0.0,0.0,0.0,9.0,16.0,16.0,12.0,0.0],"links":64,"err_sig":-6.551345e-18,"correct_answer":null,"cached_output":null,"category":null,"b_weight":-0.4274345},{"link_weights":[0.15689015,0.25125793,0.13537273,0.070510685,-0.08650675,-0.4025689,-0.40760246,0.0901821,-0.09693123,-0.3964386,0.022807928,0.5094133,-0.28217942,0.4046359,-0.35032278,-0.32125345,-0.25640202,0.3953108,0.030475039,0.31208888,-0.011691621,0.36219007,0.01709873,0.48177174,-0.34099448,-0.1720525,-0.37530127,-0.39718443,0.19481039,0.121892154,-0.092599854,-0.3144182,0.18926191,0.49200943,0.46134928,0.06178974,0.5741816,-0.18229231,0.06095259,-0.08774948,-0.33680573,-0.31404293,0.46711886,0.44183096,-0.293538,0.45582575,0.30606702,-0.24846554,-0.35884658,0.49570432,-0.31512263,-0.01771289,-0.36398658,0.36369225,0.39821187,0.1034063,0.43898618,-0.38029614,-0.41902098,0.55976593,0.49275982,-0.09503998,0.2217906,-0.35499233],"link_vals":[0.0,0.0,0.0,10.0,16.0,5.0,0.0,0.0,0.0,0.0,2.0,16.0,13.0,2.0,0.0,0.0,0.0,0.0,7.0,16.0,4.0,0.0,0.0,0.0,0.0,0.0,8.0,16.0,1.0,0.0,0.0,0.0,0.0,0.0,11.0,16.0,10.0,1.0,0.0,0.0,0.0,0.0,13.0,16.0,16.0,13.0,4.0,0.0,0.0,0.0,7.0,16.0,7.0,15.0,14.0,0.0,0.0,0.0,0.0,9.0,16.0,16.0,12.0,0.0],"links":64,"err_sig":-0.0,"correct_answer":null,"cached_output":null,"category":null,"b_weight":-0.26505256},{"link_weights":[0.32560468,0.154067,-0.09969254,-0.37260637,0.020661747,0.5165864,0.16884239,-0.2835027,0.46009028,0.2939227,0.38103163,0.4087048,0.1678394,-0.2364723,0.14072403,0.14918427,-0.4714574,-0.3564299,-0.3691102,0.3636184,0.05290782,0.04168437,0.22484961,-0.09190784,-0.19426632,-0.03729594,0.34934235,0.47983682,-0.006231674,-0.2705416,0.24840792,0.20214963,0.3003093,0.32596245,-0.0036863377,0.34964237,-0.23228681,-0.30394563,0.2381032,0.1320262,0.117672086,0.45139804,-0.16944207,0.47886008,0.032859247,0.21285969,0.2949097,0.259897,0.11602545,0.36631307,-0.38782528,0.17017817,0.2176838,-0.2466531,0.5014733,-0.041846532,0.19887078,0.2947622,0.058353677,0.061298244,0.2720435,-0.34323162,0.46143082,-0.21696053],"link_vals":[0.0,0.0,0.0,10.0,16.0,5.0,0.0,0.0,0.0,0.0,2.0,16.0,13.0,2.0,0.0,0.0,0.0,0.0,7.0,16.0,4.0,0.0,0.0,0.0,0.0,0.0,8.0,16.0,1.0,0.0,0.0,0.0,0.0,0.0,11.0,16.0,10.0,1.0,0.0,0.0,0.0,0.0,13.0,16.0,16.0,13.0,4.0,0.0,0.0,0.0,7.0,16.0,7.0,15.0,14.0,0.0,0.0,0.0,0.0,9.0,16.0,16.0,12.0,0.0],"links":64,"err_sig":-0.0,"correct_answer":null,"cached_output":null,"category":null,"b_weight":0.27515486},{"link_weights":[0.26505148,0.18038139,-0.4156729,-0.08512504,-0.25679803,0.14888425,-0.09706176,0.46279618,0.39769876,0.14884627,-0.23005188,-0.48878184,-0.145824,0.046435986,0.3022742,0.40297124,-0.16217886,-0.19032742,-0.03729342,0.104323745,-0.4192584,0.37891796,0.22936091,0.13709912,-0.32292187,0.18431827,-0.08191147,0.33258736,-0.11774418,-0.024034485,0.014731634,0.32176685,0.12996201,-0.33751646,0.30057165,-0.25972202,0.42613196,-0.31966823,-0.04129219,-0.1348387,-0.45930144,-0.41429016,-0.065317795,0.28976315,-0.111221485,-0.3084598,0.39487103,-0.3635746,0.12144703,-0.30074432,-0.1183301,-0.22181596,0.35107985,-0.24562535,-0.059923034,-0.41718432,-0.3747108,-0.07009754,-0.3421246,-0.2568214,-0.33450517,-0.06792199,0.32371074,0.24530603],"link_vals":[0.0,0.0,0.0,10.0,16.0,5.0,0.0,0.0,0.0,0.0,2.0,16.0,13.0,2.0,0.0,0.0,0.0,0.0,7.0,16.0,4.0,0.0,0.0,0.0,0.0,0.0,8.0,16.0,1.0,0.0,0.0,0.0,0.0,0.0,11.0,16.0,10.0,1.0,0.0,0.0,0.0,0.0,13.0,16.0,16.0,13.0,4.0,0.0,0.0,0.0,7.0,16.0,7.0,15.0,14.0,0.0,0.0,0.0,0.0,9.0,16.0,16.0,12.0,0.0],"links":64,"err_sig":-1.6084651e-11,"correct_answer":null,"cached_output":null,"category":null,"b_weight":0.27689698},{"link_weights":[-0.2037592,0.43480936,0.43570903,0.06659551,-0.30090368,-0.09520083,-0.017913228,0.05597509,-0.4851431,0.28584236,-0.099783555,0.064042255,-0.22690919,0.11535068,0.2506353,-0.24949221,0.39375547,-0.17210583,-0.10959408,-0.30516952,0.42145324,0.11716085,-0.07614959,0.15267241,0.04526511,-0.5243549,-0.27068546,-0.035765197,0.43584678,-0.21541703,0.019158011,-0.020640729,0.14797652,0.106409505,0.089712635,-0.37547967,-0.33194032,-0.40697244,0.076250136,0.467283,-0.35338032,0.14827468,-0.48274624,0.46871924,-0.24040818,-0.6174888,0.27593377,-0.12931854,0.13470753,0.27587473,-0.15223275,0.3967256,-0.0031491865,-0.05936123,0.40102017,-0.11590197,0.08324404,-0.39593756,0.3672258,-0.43802306,0.254862,0.58284056,0.11218014,0.23193152],"link_vals":[0.0,0.0,0.0,10.0,16.0,5.0,0.0,0.0,0.0,0.0,2.0,16.0,13.0,2.0,0.0,0.0,0.0,0.0,7.0,16.0,4.0,0.0,0.0,0.0,0.0,0.0,8.0,16.0,1.0,0.0,0.0,0.0,0.0,0.0,11.0,16.0,10.0,1.0,0.0,0.0,0.0,0.0,13.0,16.0,16.0,13.0,4.0,0.0,0.0,0.0,7.0,16.0,7.0,15.0,14.0,0.0,0.0,0.0,0.0,9.0,16.0,16.0,12.0,0.0],"links":64,"err_sig":2.7561056e-8,"correct_answer":null,"cached_output":null,"category":null,"b_weight":0.044098128},{"link_weights":[-0.21095312,0.42388093,0.10618817,0.18872961,-0.15941317,-0.39153662,0.13023068,0.34112337,0.32653835,-0.30208892,-0.27024636,0.08613456,-0.051547408,-0.18711056,-0.27616447,-0.29693222,0.47030386,0.4797373,0.42336848,0.33957472,-0.4985121,0.18888913,0.30125728,-0.29607874,0.13902712,0.53913295,0.50601584,0.37824136,-0.31221655,0.38620016,-0.19100231,-0.15616722,0.45726562,0.036118563,-0.12613207,-0.3199698,-0.07004339,-0.30743903,-0.16604841,0.3990965,0.433655,0.3816731,-0.022396982,0.3893854,-0.11221794,-0.11872846,0.027142948,-0.20727387,-0.37518635,-0.2703334,0.072259806,-0.060023367,0.2054335,-0.0155048445,-0.08578179,-0.27434078,0.2993517,-0.034221485,-0.23358384,0.12911503,0.27609226,-0.0928284,-0.20516057,-0.46328202],"link_vals":[0.0,0.0,0.0,10.0,16.0,5.0,0.0,0.0,0.0,0.0,2.0,16.0,13.0,2.0,0.0,0.0,0.0,0.0,7.0,16.0,4.0,0.0,0.0,0.0,0.0,0.0,8.0,16.0,1.0,0.0,0.0,0.0,0.0,0.0,11.0,16.0,10.0,1.0,0.0,0.0,0.0,0.0,13.0,16.0,16.0,13.0,4.0,0.0,0.0,0.0,7.0,16.0,7.0,15.0,14.0,0.0,0.0,0.0,0.0,9.0,16.0,16.0,12.0,0.0],"links":64,"err_sig":-1.568004e-7,"correct_answer":null,"cached_output":null,"category":null,"b_weight":-0.39320755},{"link_weights":[-0.1918335,-0.28733167,0.12810826,0.10594582,0.16932711,0.050281573,0.3381033,-0.15031044,0.1356448,-0.15540908,-0.06761313,0.51008457,-0.27308166,0.19543421,-0.15988809,0.31875634,0.22070396,0.29406312,0.05370707,0.46904948,-0.030308416,-0.23945881,0.2298945,-0.06311506,-0.3795178,0.27911192,-0.40274897,0.22804603,0.028920354,0.14592473,-0.3716798,0.39621314,0.024553182,0.097600855,-0.26356873,0.104984194,0.15997444,-0.40769207,0.3653258,0.26199841,-0.14246203,0.20730004,0.29577714,-0.17897259,0.06991782,-0.07274421,0.23673503,0.13490033,-0.004807698,-0.25276795,0.27825114,-0.040180806,0.09234229,0.22084628,0.063477464,0.015404344,0.17993498,0.1683727,0.32465407,0.18667164,0.108103715,0.25173062,0.29907978,0.12761259],"link_vals":[0.0,0.0,0.0,10.0,16.0,5.0,0.0,0.0,0.0,0.0,2.0,16.0,13.0,2.0,0.0,0.0,0.0,0.0,7.0,16.0,4.0,0.0,0.0,0.0,0.0,0.0,8.0,16.0,1.0,0.0,0.0,0.0,0.0,0.0,11.0,16.0,10.0,1.0,0.0,0.0,0.0,0.0,13.0,16.0,16.0,13.0,4.0,0.0,0.0,0.0,7.0,16.0,7.0,15.0,14.0,0.0,0.0,0.0,0.0,9.0,16.0,16.0,12.0,0.0],"links":64,"err_sig":-0.0,"correct_answer":null,"cached_output":null,"category":null,"b_weight":-0.41653684},{"link_weights":[0.099124074,0.2782461,0.08124616,0.35823464,-0.11050679,-0.4261081,-0.18492702,0.056414228,-0.46836352,0.47196472,-0.070352875,0.25787625,0.43132392,0.34414333,0.07868065,-0.20256446,0.029062508,-0.4319447,0.22252636,0.12300757,0.065466695,-0.18795885,-0.27792385,0.417294,-0.3895409,-0.27804878,0.060266327,0.42670998,0.054007266,0.1841882,0.2944399,-0.40958232,-0.42054915,-0.004407374,0.41632777,-0.20155111,-0.30828404,-0.2748381,-0.15363033,0.49367893,0.13402629,-0.016190823,-0.1376992,0.02456331,0.49619383,-0.04186104,-0.16001454,-0.2550238,0.10078001,0.24687594,0.045740232,0.5415821,0.2687352,-0.060433608,-0.19892357,0.0051203454,-0.24383032,-0.13921282,0.4849889,-0.2151686,-0.07809255,0.044630256,-0.03807455,0.16296642],"link_vals":[0.0,0.0,0.0,10.0,16.0,5.0,0.0,0.0,0.0,0.0,2.0,16.0,13.0,2.0,0.0,0.0,0.0,0.0,7.0,16.0,4.0,0.0,0.0,0.0,0.0,0.0,8.0,16.0,1.0,0.0,0.0,0.0,0.0,0.0,11.0,16.0,10.0,1.0,0.0,0.0,0.0,0.0,13.0,16.0,16.0,13.0,4.0,0.0,0.0,0.0,7.0,16.0,7.0,15.0,14.0,0.0,0.0,0.0,0.0,9.0,16.0,16.0,12.0,0.0],"links":64,"err_sig":0.0,"correct_answer":null,"cached_output":null,"category":null,"b_weight":-0.36641517},{"link_weights":[0.037947655,-0.25478324,0.1593013,0.158292,0.32834175,-0.32718152,-0.29906413,0.07504237,-0.05226059,-0.3527222,-0.20769021,0.12566498,0.111405246,-0.44975755,-0.06476942,-0.4820747,-0.23428515,-0.30197874,-0.54791725,-0.027322326,-0.23201439,0.115392275,0.32408968,0.3006934,0.19437568,-0.21876302,-0.51373875,0.08938177,0.27504638,-0.4731872,-0.31992882,-0.18546973,-0.4128934,0.5237486,0.21779542,-0.032846697,0.5672827,0.06912695,0.21338229,-0.41275716,-0.13893127,0.3410753,-0.14408745,0.33039057,0.25005266,0.55706954,0.51731443,-0.17499097,0.23048411,0.30657205,-0.3583384,-0.15748061,0.2840768,0.06615655,-0.252015,0.3213777,-0.49729508,-0.22934704,-0.20518546,-0.41608647,0.07480396,0.08242242,0.04358094,-0.2548936],"link_vals":[0.0,0.0,0.0,10.0,16.0,5.0,0.0,0.0,0.0,0.0,2.0,16.0,13.0,2.0,0.0,0.0,0.0,0.0,7.0,16.0,4.0,0.0,0.0,0.0,0.0,0.0,8.0,16.0,1.0,0.0,0.0,0.0,0.0,0.0,11.0,16.0,10.0,1.0,0.0,0.0,0.0,0.0,13.0,16.0,16.0,13.0,4.0,0.0,0.0,0.0,7.0,16.0,7.0,15.0,14.0,0.0,0.0,0.0,0.0,9.0,16.0,16.0,12.0,0.0],"links":64,"err_sig":0.0,"correct_answer":null,"cached_output":null,"category":null,"b_weight":0.043462444},{"link_weights":[-0.44223213,-0.18854576,0.051719174,-0.15997958,0.46275648,-0.110730425,0.0331556,0.12294144,-0.15852273,-0.41765678,0.4865763,0.048066463,-0.049301382,0.24086367,0.1564563,-0.42493653,-0.299636,0.48152775,-0.11154567,-0.086685166,-0.43057287,0.5069362,-0.082160085,0.19536105,-0.42575336,-0.31059426,-0.42717808,0.3077817,-0.46344733,0.4315675,0.24119158,0.18216705,-0.2135247,0.120452344,-0.4902701,-0.17310725,0.3648324,0.27032933,-0.23796386,0.36226797,0.3294959,-0.10518056,0.041231483,0.23795041,0.13853817,-0.24879926,0.392867,-0.37297776,0.47718346,0.07398451,0.31712443,0.18642442,0.47068158,-0.12846911,-0.48430672,-0.21270008,-0.20411253,0.40985376,-0.08042618,0.25124264,0.47213295,0.06777742,-0.0062143677,-0.3236349],"link_vals":[0.0,0.0,0.0,10.0,16.0,5.0,0.0,0.0,0.0,0.0,2.0,16.0,13.0,2.0,0.0,0.0,0.0,0.0,7.0,16.0,4.0,0.0,0.0,0.0,0.0,0.0,8.0,16.0,1.0,0.0,0.0,0.0,0.0,0.0,11.0,16.0,10.0,1.0,0.0,0.0,0.0,0.0,13.0,16.0,16.0,13.0,4.0,0.0,0.0,0.0,7.0,16.0,7.0,15.0,14.0,0.0,0.0,0.0,0.0,9.0,16.0,16.0,12.0,0.0],"links":64,"err_sig":-2.403711e-10,"correct_answer":null,"cached_output":null,"category":null,"b_weight":0.4453623},{"link_weights":[0.42952788,-0.48482433,0.02127207,-0.39223388,0.2814465,-0.14670028,0.18359704,-0.19067661,0.21337032,-0.21293321,0.0104646105,-0.088932015,0.4615718,-0.25089142,0.33656642,-0.47670987,-0.17447823,0.24595371,0.37927535,0.43961313,-0.009377763,0.24856022,-0.47987926,-0.17749627,-0.0014810562,-0.35214105,0.053015254,-0.11997899,0.30961668,0.29356068,-0.015252054,-0.35386968,-0.14903045,-0.28797036,0.28321582,0.2120221,0.16244955,0.4282849,0.15451656,0.32623577,0.119763255,0.3585632,0.07854844,0.28127232,-0.17158051,0.042106077,0.46162283,0.029948592,0.12825203,-0.46739295,0.1898559,-0.099899404,0.29765972,0.3675337,0.22472899,0.24751234,-0.10214865,0.00081991433,0.19250518,-0.006044178,-0.19144556,0.27499387,-0.37940368,-0.052514598],"link_vals":[0.0,0.0,0.0,10.0,16.0,5.0,0.0,0.0,0.0,0.0,2.0,16.0,13.0,2.0,0.0,0.0,0.0,0.0,7.0,16.0,4.0,0.0,0.0,0.0,0.0,0.0,8.0,16.0,1.0,0.0,0.0,0.0,0.0,0.0,11.0,16.0,10.0,1.0,0.0,0.0,0.0,0.0,13.0,16.0,16.0,13.0,4.0,0.0,0.0,0.0,7.0,16.0,7.0,15.0,14.0,0.0,0.0,0.0,0.0,9.0,16.0,16.0,12.0,0.0],"links":64,"err_sig":-0.0,"correct_answer":null,"cached_output":null,"category":null,"b_weight":-0.13859008},{"link_weights":[-0.15844297,-0.16296655,0.42241964,0.23417856,0.29192483,0.36324662,-0.10108423,0.45275497,0.007795285,0.26170263,0.094016634,-0.27620527,0.00092423044,0.11980827,0.24240804,-0.3490991,0.29651028,0.005066405,-0.103179574,-0.32054392,0.49519122,-0.018749246,0.3604655,-0.08650095,-0.038564328,-0.16251707,-0.3669189,-0.1675508,0.6184286,-0.4829507,-0.5249814,0.36000475,-0.040312592,-0.4875454,0.0042968234,0.45216995,-0.1611113,0.13869609,-0.5561662,0.27634907,0.31801295,-0.0075957617,-0.10525619,-0.05015878,-0.37913767,-0.20631428,0.24768257,-0.11226873,0.0910901,-0.04777332,-0.43920872,0.015995363,0.41819763,-0.08473699,0.39617676,0.43213362,-0.47759366,0.23870277,-0.19512771,0.35877842,0.5359273,-0.22678386,-0.07095776,0.2516657],"link_vals":[0.0,0.0,0.0,10.0,16.0,5.0,0.0,0.0,0.0,0.0,2.0,16.0,13.0,2.0,0.0,0.0,0.0,0.0,7.0,16.0,4.0,0.0,0.0,0.0,0.0,0.0,8.0,16.0,1.0,0.0,0.0,0.0,0.0,0.0,11.0,16.0,10.0,1.0,0.0,0.0,0.0,0.0,13.0,16.0,16.0,13.0,4.0,0.0,0.0,0.0,7.0,16.0,7.0,15.0,14.0,0.0,0.0,0.0,0.0,9.0,16.0,16.0,12.0,0.0],"links":64,"err_sig":-0.00001878125,"correct_answer":null,"cached_output":null,"category":null,"b_weight":0.2794436},{"link_weights":[0.24949777,0.4664844,0.23082112,0.06595623,0.14345314,0.011416,-0.35890403,-0.2604395,0.41843012,-0.41867065,0.1804835,0.3927621,0.5947903,0.6938398,0.5375313,-0.36337084,-0.14870413,0.17346726,-0.5066202,-0.030475272,0.26409718,0.52029365,0.5362185,0.3294713,-0.22831383,-0.1608668,-0.18185538,-0.5242408,0.3260332,0.20585512,-0.13171937,0.21487577,-0.17492546,0.047391865,-0.25519675,-0.22563808,-0.29819104,-0.057144757,-0.06334801,-0.29666173,0.3548227,0.32810485,-0.09429875,-0.48367846,-0.007299168,-0.25917372,0.30517367,-0.07583821,-0.4991517,-0.23295179,0.23789145,-0.15308389,-0.35293177,-0.21798469,0.32076964,-0.46240106,-0.4737919,-0.32789928,-0.21889131,-0.043876443,0.06766587,0.36924055,-0.39952323,0.31662554],"link_vals":[0.0,0.0,0.0,10.0,16.0,5.0,0.0,0.0,0.0,0.0,2.0,16.0,13.0,2.0,0.0,0.0,0.0,0.0,7.0,16.0,4.0,0.0,0.0,0.0,0.0,0.0,8.0,16.0,1.0,0.0,0.0,0.0,0.0,0.0,11.0,16.0,10.0,1.0,0.0,0.0,0.0,0.0,13.0,16.0,16.0,13.0,4.0,0.0,0.0,0.0,7.0,16.0,7.0,15.0,14.0,0.0,0.0,0.0,0.0,9.0,16.0,16.0,12.0,0.0],"links":64,"err_sig":-4.2456536e-10,"correct_answer":null,"cached_output":null,"category":null,"b_weight":0.348961},{"link_weights":[0.4790696,0.27091178,0.06338361,0.21592855,-0.5048634,-0.2952173,0.046126965,-0.09256211,-0.18373775,0.14481062,-0.089619055,-0.42867547,-0.3278977,-0.49534357,0.22527212,-0.4258066,-0.34776723,-0.1925564,0.0047344593,-0.45451948,0.034431446,0.18813051,-0.07248249,0.0963918,-0.443447,-0.16010872,-0.4780378,-0.08043297,0.028689845,0.064043224,-0.4699979,0.069809675,0.045470834,-0.07573433,-0.28043568,-0.17580341,-0.079152495,0.27240235,0.41151512,0.12032914,-0.47564638,0.4136239,-0.296756,0.26063132,-0.42115214,-0.45281583,0.15654746,0.2421635,-0.03948331,-0.045843508,-0.39411592,0.14971076,-0.40420824,-0.37800238,0.3363406,-0.28590176,0.07817912,-0.17787734,0.21391474,0.37673002,0.18989946,0.38582534,0.016998408,-0.07002821],"link_vals":[0.0,0.0,0.0,10.0,16.0,5.0,0.0,0.0,0.0,0.0,2.0,16.0,13.0,2.0,0.0,0.0,0.0,0.0,7.0,16.0,4.0,0.0,0.0,0.0,0.0,0.0,8.0,16.0,1.0,0.0,0.0,0.0,0.0,0.0,11.0,16.0,10.0,1.0,0.0,0.0,0.0,0.0,13.0,16.0,16.0,13.0,4.0,0.0,0.0,0.0,7.0,16.0,7.0,15.0,14.0,0.0,0.0,0.0,0.0,9.0,16.0,16.0,12.0,0.0],"links":64,"err_sig":1.5201948e-21,"correct_answer":null,"cached_output":null,"category":null,"b_weight":-0.18043397},{"link_weights":[-0.17799819,-0.040158663,-0.38821355,0.10729593,0.19834712,-0.17669818,0.23744228,-0.36707172,0.4031557,0.23951456,-0.34400785,-0.21373148,0.5361828,-0.41441768,-0.3332115,0.18595405,-0.00980474,0.09439428,-0.36953706,-0.33378243,-0.39639354,0.45612702,0.3612092,-0.4115525,0.055395246,-0.11943529,0.046626247,-0.07994106,-0.045366384,0.0024714465,0.40643552,-0.15633269,0.3987175,0.40572056,0.059850454,-0.39815417,-0.43847442,0.23068003,-0.23436607,0.37799895,-0.14900538,0.16788837,0.26485932,-0.25148195,-0.26570997,-0.34912246,0.06421365,-0.04261854,-0.4241215,0.07837442,0.046860773,-0.04945899,-0.1961943,0.39715448,0.04869896,-0.00095069606,-0.43093136,0.36492538,-0.39148155,0.067256145,0.12673995,0.08941984,0.18785164,0.4003496],"link_vals":[0.0,0.0,0.0,10.0,16.0,5.0,0.0,0.0,0.0,0.0,2.0,16.0,13.0,2.0,0.0,0.0,0.0,0.0,7.0,16.0,4.0,0.0,0.0,0.0,0.0,0.0,8.0,16.0,1.0,0.0,0.0,0.0,0.0,0.0,11.0,16.0,10.0,1.0,0.0,0.0,0.0,0.0,13.0,16.0,16.0,13.0,4.0,0.0,0.0,0.0,7.0,16.0,7.0,15.0,14.0,0.0,0.0,0.0,0.0,9.0,16.0,16.0,12.0,0.0],"links":64,"err_sig":6.219898e-11,"correct_answer":null,"cached_output":null,"category":null,"b_weight":-0.1760163},{"link_weights":[-0.071718454,-0.062053822,-0.24352355,0.24758726,0.38948396,-0.07912128,-0.32850915,-0.17311299,0.3650796,0.29844353,-0.1061821,-0.22019221,0.1611893,0.6001472,-0.082084045,0.22579712,-0.109305814,0.4610551,0.35502356,0.26272282,0.43067876,0.49987307,0.31936225,0.456941,0.29646373,0.018047314,-0.21826646,-0.10991806,0.25393552,-0.25541195,0.46449852,-0.052328266,-0.30877906,-0.120427914,-0.46522936,-0.2616033,0.41497475,-0.46545663,0.05528751,-0.37227392,0.2726299,-0.050062124,-0.352609,-0.5035755,-0.41899008,-0.41053882,-0.4459769,-0.31863594,-0.18193252,0.48070905,0.16880332,0.23608914,-0.02681686,0.06423323,-0.24421257,-0.09811595,-0.35353267,0.42966527,-0.02409846,0.45323706,-0.08624385,0.26760924,0.09061338,0.0747609],"link_vals":[0.0,0.0,0.0,10.0,16.0,5.0,0.0,0.0,0.0,0.0,2.0,16.0,13.0,2.0,0.0,0.0,0.0,0.0,7.0,16.0,4.0,0.0,0.0,0.0,0.0,0.0,8.0,16.0,1.0,0.0,0.0,0.0,0.0,0.0,11.0,16.0,10.0,1.0,0.0,0.0,0.0,0.0,13.0,16.0,16.0,13.0,4.0,0.0,0.0,0.0,7.0,16.0,7.0,15.0,14.0,0.0,0.0,0.0,0.0,9.0,16.0,16.0,12.0,0.0],"links":64,"err_sig":-0.0000013554894,"correct_answer":null,"cached_output":null,"category":null,"b_weight":0.44847435},{"link_weights":[0.30497682,-0.36135584,0.3796704,0.037897196,0.38103506,0.093405254,-0.47919458,0.1290791,0.4857906,-0.25022066,-0.5307804,0.1743393,-0.11536898,-0.03345599,-0.30742082,-0.016365515,0.25814027,-0.30720648,0.17693996,0.17705655,-0.5189906,0.4187185,-0.020700375,0.31637955,-0.15602314,-0.45339352,-0.12224118,-0.08248453,-0.49300382,0.28843382,0.27902123,0.03684755,-0.3565762,0.046239853,0.15014187,-0.28508872,0.22412987,0.030841228,0.27491176,-0.40831602,0.08760932,0.59101903,-0.08335795,-0.1158744,-0.280085,0.4171261,0.2316548,0.15012692,0.43699753,-0.14401203,0.07581931,-0.44001958,0.27867645,-0.50291765,-0.3513207,-0.138002,0.18371418,0.014132761,-0.16754934,-0.08579598,0.27427992,-0.43702427,0.13619016,0.107981235],"link_vals":[0.0,0.0,0.0,10.0,16.0,5.0,0.0,0.0,0.0,0.0,2.0,16.0,13.0,2.0,0.0,0.0,0.0,0.0,7.0,16.0,4.0,0.0,0.0,0.0,0.0,0.0,8.0,16.0,1.0,0.0,0.0,0.0,0.0,0.0,11.0,16.0,10.0,1.0,0.0,0.0,0.0,0.0,13.0,16.0,16.0,13.0,4.0,0.0,0.0,0.0,7.0,16.0,7.0,15.0,14.0,0.0,0.0,0.0,0.0,9.0,16.0,16.0,12.0,0.0],"links":64,"err_sig":4.8459912e-12,"correct_answer":null,"cached_output":null,"category":null,"b_weight":0.019661328},{"link_weights":[-0.16274965,-0.24139434,0.425213,0.49835095,-0.102852434,0.4682351,-0.004240125,-0.3762702,0.10508654,0.25733882,0.48757228,0.03998261,-0.40643248,0.4085542,0.25672102,-0.21244067,-0.47326595,-0.45405644,0.3174437,-0.222979,-0.30501232,-0.2040555,-0.36381486,-0.37547234,-0.30319273,-0.5110312,-0.425633,-0.09275615,-0.3122964,-0.5292448,0.1506849,0.15275124,0.25106382,-0.25994188,0.25691158,-0.0045450334,0.043628965,-0.22676663,-0.4628554,0.11844015,-0.16292031,0.38386738,-0.009457339,0.31609502,-0.020893786,0.5923995,0.41414776,0.27264425,0.26660317,-0.0635313,0.25534886,-0.4419886,-0.47421706,0.41041112,-0.27034733,-0.13684721,-0.21670659,-0.39309698,-0.19802237,-0.27745593,0.33600107,-0.16736884,0.079013124,-0.0033281008],"link_vals":[0.0,0.0,0.0,10.0,16.0,5.0,0.0,0.0,0.0,0.0,2.0,16.0,13.0,2.0,0.0,0.0,0.0,0.0,7.0,16.0,4.0,0.0,0.0,0.0,0.0,0.0,8.0,16.0,1.0,0.0,0.0,0.0,0.0,0.0,11.0,16.0,10.0,1.0,0.0,0.0,0.0,0.0,13.0,16.0,16.0,13.0,4.0,0.0,0.0,0.0,7.0,16.0,7.0,15.0,14.0,0.0,0.0,0.0,0.0,9.0,16.0,16.0,12.0,0.0],"links":64,"err_sig":0.0000022713295,"correct_answer":null,"cached_output":null,"category":null,"b_weight":0.24098775},{"link_weights":[-0.46506655,-0.32640874,0.45254228,-0.12307814,-0.16889404,-0.12604916,-0.32724386,-0.39181075,-0.35088885,0.26665327,0.53446853,0.088835135,0.24085361,-0.16597156,0.054097876,0.35351217,-0.42106768,-0.18970858,-0.42266908,-0.5592307,0.35361364,-0.13537954,0.020022629,-0.1339008,0.07943407,0.07103497,-0.08502073,0.15437777,-0.028655104,0.2204832,0.21338114,-0.14047298,0.49711,0.115823604,-0.18618298,0.31905752,0.07582436,0.44447806,0.34336713,-0.1770171,0.34056023,-0.18373513,-0.2941705,-0.022892278,-0.29112494,-0.08159499,-0.39830786,0.23039629,-0.35630512,0.37398955,-0.09984395,0.028945282,-0.5610752,-0.035971213,0.025911877,-0.45073602,-0.4546858,-0.27129158,-0.0139363175,-0.49953043,0.19086047,-0.31862035,0.033086535,0.06346502],"link_vals":[0.0,0.0,0.0,10.0,16.0,5.0,0.0,0.0,0.0,0.0,2.0,16.0,13.0,2.0,0.0,0.0,0.0,0.0,7.0,16.0,4.0,0.0,0.0,0.0,0.0,0.0,8.0,16.0,1.0,0.0,0.0,0.0,0.0,0.0,11.0,16.0,10.0,1.0,0.0,0.0,0.0,0.0,13.0,16.0,16.0,13.0,4.0,0.0,0.0,0.0,7.0,16.0,7.0,15.0,14.0,0.0,0.0,0.0,0.0,9.0,16.0,16.0,12.0,0.0],"links":64,"err_sig":-1.164191e-14,"correct_answer":null,"cached_output":null,"category":null,"b_weight":0.49069652},{"link_weights":[-0.13184214,0.2698362,0.27992386,-0.5352971,0.14946078,0.026051676,0.21103996,0.4155249,0.0019935986,0.2632681,0.3686591,0.32703692,0.3453796,-0.35960776,-0.19504832,-0.10650567,-0.2394583,0.22475864,-0.10556058,-0.192944,-0.39720517,-0.13481815,-0.027659379,-0.15513499,0.35565755,-0.5488177,-0.3378313,0.2569251,-0.38250712,-0.10374036,-0.49310544,-0.13820167,0.24954553,-0.12830923,-0.15755992,-0.32879025,0.33175093,-0.55636555,-0.5256746,0.16061342,-0.19252814,-0.35014877,0.51695555,0.4359249,-0.19027166,0.26417,0.26594692,-0.14068592,-0.24049954,-0.3954974,0.15301818,-0.12512279,-0.33280656,0.27588335,-0.3584952,-0.33277935,0.4652187,0.013103721,-0.14448221,0.4915576,0.20408705,0.23880278,-0.085256055,-0.37248373],"link_vals":[0.0,0.0,0.0,10.0,16.0,5.0,0.0,0.0,0.0,0.0,2.0,16.0,13.0,2.0,0.0,0.0,0.0,0.0,7.0,16.0,4.0,0.0,0.0,0.0,0.0,0.0,8.0,16.0,1.0,0.0,0.0,0.0,0.0,0.0,11.0,16.0,10.0,1.0,0.0,0.0,0.0,0.0,13.0,16.0,16.0,13.0,4.0,0.0,0.0,0.0,7.0,16.0,7.0,15.0,14.0,0.0,0.0,0.0,0.0,9.0,16.0,16.0,12.0,0.0],"links":64,"err_sig":0.0,"correct_answer":null,"cached_output":null,"category":null,"b_weight":0.28516942},{"link_weights":[-0.27318656,-0.032650776,-0.54395485,-0.14158505,-0.011526591,-0.016522173,-0.4279185,-0.24957897,-0.07791445,-0.26592508,0.33819175,-0.1276594,-0.037427545,0.18594776,-0.4008324,0.27211723,0.1306335,0.4729034,-0.28590715,0.40348315,-0.054116264,0.0920407,0.28851724,-0.23770747,0.136297,0.011501254,-0.093692325,0.02991669,0.36603576,0.073079385,-0.39928594,0.40101612,0.22606763,0.40826094,-0.07363997,-0.25455168,-0.2675668,-0.25240913,-0.18179351,0.37512088,-0.17944425,0.37811983,0.5945964,0.5457859,0.34146738,-0.38090783,-0.32775268,0.24536489,0.28000152,-0.24831378,0.31919533,-0.2935777,0.29741117,0.3360265,0.17966312,0.42612717,0.13362443,0.10315767,-0.34155345,-0.5145876,0.39843884,-0.13782264,0.13025066,0.15392189],"link_vals":[0.0,0.0,0.0,10.0,16.0,5.0,0.0,0.0,0.0,0.0,2.0,16.0,13.0,2.0,0.0,0.0,0.0,0.0,7.0,16.0,4.0,0.0,0.0,0.0,0.0,0.0,8.0,16.0,1.0,0.0,0.0,0.0,0.0,0.0,11.0,16.0,10.0,1.0,0.0,0.0,0.0,0.0,13.0,16.0,16.0,13.0,4.0,0.0,0.0,0.0,7.0,16.0,7.0,15.0,14.0,0.0,0.0,0.0,0.0,9.0,16.0,16.0,12.0,0.0],"links":64,"err_sig":-0.0,"correct_answer":null,"cached_output":null,"category":null,"b_weight":0.27303287},{"link_weights":[-0.10970235,0.2203716,-0.36359736,0.15729412,0.44444707,0.2620044,0.094652824,-0.48229048,-0.48233667,-0.040134884,0.18154202,-0.11307302,-0.35766187,0.15803154,-0.34470356,-0.085263774,-0.2612553,-0.23263322,-0.17595895,-0.33063704,0.045613572,-0.34535295,-0.34957853,0.2996647,-0.48872098,-0.0057448577,0.12019183,-0.32330114,0.2918499,-0.42458868,-0.24195214,-0.33603403,-0.06897557,-0.36868262,-0.44310638,0.24508764,0.46184385,0.016126847,0.24324101,0.2758658,-0.3224783,-0.26079366,0.0075035715,-0.57540256,-0.11438469,-0.38311818,-0.32542577,-0.15371382,-0.23548383,-0.3865554,-0.5131424,0.08742611,0.1551372,0.16270897,-0.033094805,-0.23010455,-0.40970826,-0.19096227,-0.24927808,0.1688874,0.072359845,0.08998137,-0.11529879,-0.211945],"link_vals":[0.0,0.0,0.0,10.0,16.0,5.0,0.0,0.0,0.0,0.0,2.0,16.0,13.0,2.0,0.0,0.0,0.0,0.0,7.0,16.0,4.0,0.0,0.0,0.0,0.0,0.0,8.0,16.0,1.0,0.0,0.0,0.0,0.0,0.0,11.0,16.0,10.0,1.0,0.0,0.0,0.0,0.0,13.0,16.0,16.0,13.0,4.0,0.0,0.0,0.0,7.0,16.0,7.0,15.0,14.0,0.0,0.0,0.0,0.0,9.0,16.0,16.0,12.0,0.0],"links":64,"err_sig":6.13513e-11,"correct_answer":null,"cached_output":null,"category":null,"b_weight":-0.31463027},{"link_weights":[0.31769884,0.35099545,-0.25796527,-0.15673406,0.02864865,-0.09142091,0.19767292,-0.28451025,-0.19841492,0.21482708,0.09543831,-0.31782869,-0.34930158,0.4573597,0.085495606,-0.0029072263,-0.24972177,0.3696049,-0.00511753,0.20343891,-0.029867655,0.4206358,0.273066,-0.4559253,0.12249577,0.35911208,-0.05944019,-0.48749793,-0.12707108,-0.10590332,0.46684822,-0.4128015,0.09953769,-0.43419954,0.3156791,0.07066466,-0.65025806,0.12936334,0.2734721,-0.31877112,0.37416294,-0.3780506,0.101100124,-0.0011867523,-0.5462688,0.44764936,0.19660269,-0.47001913,-0.31497264,-0.025778389,0.106813855,-0.33043155,0.051516663,-0.3875179,-0.23138432,-0.08307715,0.3646766,0.43598914,-0.26269543,-0.36601278,0.37155643,0.24635899,0.09987446,-0.43812278],"link_vals":[0.0,0.0,0.0,10.0,16.0,5.0,0.0,0.0,0.0,0.0,2.0,16.0,13.0,2.0,0.0,0.0,0.0,0.0,7.0,16.0,4.0,0.0,0.0,0.0,0.0,0.0,8.0,16.0,1.0,0.0,0.0,0.0,0.0,0.0,11.0,16.0,10.0,1.0,0.0,0.0,0.0,0.0,13.0,16.0,16.0,13.0,4.0,0.0,0.0,0.0,7.0,16.0,7.0,15.0,14.0,0.0,0.0,0.0,0.0,9.0,16.0,16.0,12.0,0.0],"links":64,"err_sig":1.2398735e-13,"correct_answer":null,"cached_output":null,"category":null,"b_weight":-0.13404788},{"link_weights":[-0.34967732,-0.31130713,0.37202603,0.12081476,0.32714313,-0.19145761,-0.08665214,0.1581882,-0.4200268,0.2601207,-0.14225699,0.44253337,0.22517619,-0.32098442,-0.31610963,-0.4784911,0.27379993,-0.036033195,-0.61814505,-0.44741476,-0.41917056,0.009427636,-0.14153099,0.22235422,-0.25526842,-0.43372324,0.09578454,0.2640699,-0.30571774,-0.105663456,-0.4874832,0.23807321,0.26826632,-0.0051430063,-0.40149975,0.2752394,-0.06473298,-0.46570358,-0.013880903,0.06853855,0.16246518,-0.445711,0.1735923,0.35956243,-0.43775913,-0.39838788,-0.29308262,-0.48929098,-0.42691737,0.4629847,0.053762466,0.31188422,0.19614321,0.09395084,0.49410158,-0.41956365,-0.28598955,0.32284874,0.30082294,-0.4765286,0.2603629,-0.22308597,-0.3960078,0.2935746],"link_vals":[0.0,0.0,0.0,10.0,16.0,5.0,0.0,0.0,0.0,0.0,2.0,16.0,13.0,2.0,0.0,0.0,0.0,0.0,7.0,16.0,4.0,0.0,0.0,0.0,0.0,0.0,8.0,16.0,1.0,0.0,0.0,0.0,0.0,0.0,11.0,16.0,10.0,1.0,0.0,0.0,0.0,0.0,13.0,16.0,16.0,13.0,4.0,0.0,0.0,0.0,7.0,16.0,7.0,15.0,14.0,0.0,0.0,0.0,0.0,9.0,16.0,16.0,12.0,0.0],"links":64,"err_sig":-0.0000014427379,"correct_answer":null,"cached_output":null,"category":null,"b_weight":0.07841331},{"link_weights":[0.24687302,0.03168218,-0.41524217,-0.28656092,-0.09853093,-0.13851961,-0.31581435,0.29404816,-0.31782085,-0.005987227,0.4208958,0.37203175,0.15724391,-0.20749143,-0.1395696,-0.4377723,0.38657922,-0.23384167,0.51896083,-0.21577065,-0.47117528,-0.05017759,-0.1470932,-0.29457808,-0.16363756,0.22405423,0.46180764,0.07949167,-0.6475043,-0.49775246,-0.37299424,0.25827828,0.039061435,0.0134561,0.07996703,-0.4154681,-0.2114297,-0.37778598,0.5156177,0.097846866,0.42810625,-0.030422973,-0.14664088,-0.024378533,0.30458972,0.4152561,-0.2207361,-0.07212029,0.039030172,-0.31204247,-0.01367968,0.140734,0.3534183,0.19037089,-0.012667526,0.45908725,-0.42064023,0.048547637,0.12927257,-0.2722266,0.018360667,-0.40268683,0.032337137,-0.03195069],"link_vals":[0.0,0.0,0.0,10.0,16.0,5.0,0.0,0.0,0.0,0.0,2.0,16.0,13.0,2.0,0.0,0.0,0.0,0.0,7.0,16.0,4.0,0.0,0.0,0.0,0.0,0.0,8.0,16.0,1.0,0.0,0.0,0.0,0.0,0.0,11.0,16.0,10.0,1.0,0.0,0.0,0.0,0.0,13.0,16.0,16.0,13.0,4.0,0.0,0.0,0.0,7.0,16.0,7.0,15.0,14.0,0.0,0.0,0.0,0.0,9.0,16.0,16.0,12.0,0.0],"links":64,"err_sig":-0.0000031627,"correct_answer":null,"cached_output":null,"category":null,"b_weight":-0.35225567},{"link_weights":[-0.05005634,0.347828,-0.3019631,0.14399914,0.38586977,0.35943976,0.35043338,-0.11052671,-0.31426787,0.15217844,-0.18646482,0.00017611492,0.09207759,-0.33328113,-0.41783172,0.40791324,0.40940663,0.027491445,0.010030118,0.4980345,-0.11938072,0.3555886,-0.33505005,-0.31033185,0.100640774,0.20559582,-0.11483707,0.011842695,0.4299152,-0.03286588,0.3930974,0.4083978,0.2853247,0.16256057,0.21061856,-0.38812095,0.18056989,0.26644638,-0.42430332,0.3863393,0.40129542,0.36376786,0.18467116,0.30090913,0.3857563,-0.47597587,0.2472311,-0.45780078,-0.11298907,0.3754119,-0.37420303,0.21928763,-0.076562405,-0.4559491,0.2563958,-0.32551882,-0.46048462,0.21957424,-0.04187083,0.3291302,0.37311357,0.016291294,-0.12516925,-0.47440097],"link_vals":[0.0,0.0,0.0,10.0,16.0,5.0,0.0,0.0,0.0,0.0,2.0,16.0,13.0,2.0,0.0,0.0,0.0,0.0,7.0,16.0,4.0,0.0,0.0,0.0,0.0,0.0,8.0,16.0,1.0,0.0,0.0,0.0,0.0,0.0,11.0,16.0,10.0,1.0,0.0,0.0,0.0,0.0,13.0,16.0,16.0,13.0,4.0,0.0,0.0,0.0,7.0,16.0,7.0,15.0,14.0,0.0,0.0,0.0,0.0,9.0,16.0,16.0,12.0,0.0],"links":64,"err_sig":0.0,"correct_answer":null,"cached_output":null,"category":null,"b_weight":0.31648436},{"link_weights":[0.036806703,-0.39671463,-0.21599509,0.16516006,0.10511171,0.47309437,-0.13093306,0.008063282,0.34805667,-0.41477132,0.37957504,0.39327416,0.42810756,0.2979632,-0.2742488,0.22667134,0.3892523,0.19210576,0.34752348,-0.31594062,0.4606455,-0.1549756,-0.14498763,0.12509401,0.22985351,0.38193023,-0.41559088,0.21376911,0.42101035,-0.08054033,0.38647026,0.06013465,-0.083482504,-0.48490405,0.014898328,-0.011042443,0.3086923,-0.16760474,0.08805643,0.34230995,-0.10503802,0.23835833,-0.056223337,-0.18732108,0.058888115,0.22055791,0.47795582,0.2974605,0.402483,0.18412517,-0.2935331,0.053281505,-0.04573917,-0.24298412,0.35946476,0.49797976,-0.15988994,0.16649543,0.28285745,0.28537935,-0.11137079,-0.38308367,-0.2208445,0.35507587],"link_vals":[0.0,0.0,0.0,10.0,16.0,5.0,0.0,0.0,0.0,0.0,2.0,16.0,13.0,2.0,0.0,0.0,0.0,0.0,7.0,16.0,4.0,0.0,0.0,0.0,0.0,0.0,8.0,16.0,1.0,0.0,0.0,0.0,0.0,0.0,11.0,16.0,10.0,1.0,0.0,0.0,0.0,0.0,13.0,16.0,16.0,13.0,4.0,0.0,0.0,0.0,7.0,16.0,7.0,15.0,14.0,0.0,0.0,0.0,0.0,9.0,16.0,16.0,12.0,0.0],"links":64,"err_sig":2.0823392e-10,"correct_answer":null,"cached_output":null,"category":null,"b_weight":-0.065273166},{"link_weights":[0.34557188,-0.4193126,0.14877701,0.24232903,0.43383193,0.065785065,0.49385226,-0.325368,0.41260323,-0.12691537,0.049899336,-0.10633343,-0.13876225,-0.2614387,0.44796997,-0.139832,0.24335365,-0.06653794,0.2458054,0.4547174,-0.07191768,-0.36447486,0.24035427,-0.053408287,-0.24547736,-0.13118124,0.36122286,-0.37348223,0.13603814,-0.0007525717,0.21333353,0.22862434,0.320776,0.43172443,0.3477839,-0.40511304,-0.11693139,0.4302083,0.092122994,-0.21473682,0.18038373,-0.03606485,0.5146321,-0.037570156,0.23814394,-0.45195857,-0.1737865,0.107555054,-0.31769577,0.18374985,-0.10551359,0.049890842,0.45001334,-0.5111034,-0.021039346,-0.08973574,0.38776836,-0.051389176,0.1514407,-0.433272,-0.15677816,0.06179932,0.36279687,-0.06348218],"link_vals":[0.0,0.0,0.0,10.0,16.0,5.0,0.0,0.0,0.0,0.0,2.0,16.0,13.0,2.0,0.0,0.0,0.0,0.0,7.0,16.0,4.0,0.0,0.0,0.0,0.0,0.0,8.0,16.0,1.0,0.0,0.0,0.0,0.0,0.0,11.0,16.0,10.0,1.0,0.0,0.0,0.0,0.0,13.0,16.0,16.0,13.0,4.0,0.0,0.0,0.0,7.0,16.0,7.0,15.0,14.0,0.0,0.0,0.0,0.0,9.0,16.0,16.0,12.0,0.0],"links":64,"err_sig":0.0000016369345,"correct_answer":null,"cached_output":null,"category":null,"b_weight":-0.10322601},{"link_weights":[-0.16904128,0.18385264,0.03483136,0.20733996,-0.12589276,0.09183346,-0.2837999,0.13834038,0.4323159,-0.4166285,0.26537433,-0.31764948,0.08153623,-0.08162493,-0.37464356,-0.350245,0.115322754,-0.0108221825,-0.22281937,0.41242623,0.44377375,0.031615302,-0.11250345,-0.03512111,0.0718914,-0.24893694,0.089485176,0.12350996,-0.48573485,-0.17197403,-0.020371124,0.23099515,-0.4075685,0.2028282,0.047857817,-0.049235884,-0.2643808,-0.2047376,0.022848818,0.14095116,-0.4524167,0.01159642,0.18871945,0.27434632,0.48342466,0.26604256,-0.49888542,-0.3614072,-0.019714735,0.24214849,-0.17176025,-0.3369441,0.4455406,-0.42854333,-0.30454803,-0.33865234,0.20687525,-0.42915693,-0.20753808,-0.22336188,-0.39252272,0.3905394,-0.45573974,-0.29920545],"link_vals":[0.0,0.0,0.0,10.0,16.0,5.0,0.0,0.0,0.0,0.0,2.0,16.0,13.0,2.0,0.0,0.0,0.0,0.0,7.0,16.0,4.0,0.0,0.0,0.0,0.0,0.0,8.0,16.0,1.0,0.0,0.0,0.0,0.0,0.0,11.0,16.0,10.0,1.0,0.0,0.0,0.0,0.0,13.0,16.0,16.0,13.0,4.0,0.0,0.0,0.0,7.0,16.0,7.0,15.0,14.0,0.0,0.0,0.0,0.0,9.0,16.0,16.0,12.0,0.0],"links":64,"err_sig":-0.00013990415,"correct_answer":null,"cached_output":null,"category":null,"b_weight":0.19020878},{"link_weights":[-0.3005147,0.24177031,-0.4872075,0.1307792,-0.25000098,0.09335873,0.30101785,-0.2506513,0.44521716,-0.3201659,0.1027805,0.27254087,0.20098072,0.18711776,-0.370078,0.27140632,0.48098263,-0.019541202,-0.22613968,-0.02100246,-0.2375753,-0.1736575,-0.4002945,0.44276455,0.40056777,-0.22781989,0.09010719,-0.33473268,0.028245412,-0.58087575,0.22117732,-0.3221561,-0.028674245,0.14035088,0.37638438,0.3146346,-0.14436586,-0.30207878,-0.040323764,0.09460688,-0.457872,-0.03526955,0.23841137,0.03605938,-0.52876157,-0.33684003,0.4254166,-0.1521284,0.14645492,0.43745753,0.04406855,-0.17868586,-0.4457087,-0.08735189,0.10539314,-0.40016034,0.40688524,0.048174,-0.0047890404,-0.40026402,0.4157398,0.50012106,0.33777997,0.12207786],"link_vals":[0.0,0.0,0.0,10.0,16.0,5.0,0.0,0.0,0.0,0.0,2.0,16.0,13.0,2.0,0.0,0.0,0.0,0.0,7.0,16.0,4.0,0.0,0.0,0.0,0.0,0.0,8.0,16.0,1.0,0.0,0.0,0.0,0.0,0.0,11.0,16.0,10.0,1.0,0.0,0.0,0.0,0.0,13.0,16.0,16.0,13.0,4.0,0.0,0.0,0.0,7.0,16.0,7.0,15.0,14.0,0.0,0.0,0.0,0.0,9.0,16.0,16.0,12.0,0.0],"links":64,"err_sig":0.0000023084028,"correct_answer":null,"cached_output":null,"category":null,"b_weight":0.20924273},{"link_weights":[0.12487304,0.4474897,0.003510298,0.04307297,0.10059073,-0.45206553,0.29364085,0.2197512,-0.21161251,-0.23539673,-0.19767097,-0.41367415,0.17995045,0.20761321,-0.040888466,-0.004268136,-0.31363645,0.24320948,0.26708925,0.0013626015,0.23726673,0.22022387,-0.17075498,0.15668564,-0.43434748,-0.42576963,-0.112663575,0.15618281,0.33284593,-0.41453096,0.28361,-0.23736331,0.39625266,0.09445755,0.11834428,-0.13231625,0.43897527,-0.3700419,-0.5927936,-0.1445576,-0.070183255,0.38689208,0.4356891,0.3893493,-0.18731777,-0.22516415,-0.30201852,0.47008058,0.051112384,-0.10543295,0.22023876,0.17650919,-0.39377698,0.34915376,0.03434608,0.14764936,-0.2815591,-0.34128842,-0.2838408,-0.40388146,0.021149876,0.23220238,0.4367764,-0.24328203],"link_vals":[0.0,0.0,0.0,10.0,16.0,5.0,0.0,0.0,0.0,0.0,2.0,16.0,13.0,2.0,0.0,0.0,0.0,0.0,7.0,16.0,4.0,0.0,0.0,0.0,0.0,0.0,8.0,16.0,1.0,0.0,0.0,0.0,0.0,0.0,11.0,16.0,10.0,1.0,0.0,0.0,0.0,0.0,13.0,16.0,16.0,13.0,4.0,0.0,0.0,0.0,7.0,16.0,7.0,15.0,14.0,0.0,0.0,0.0,0.0,9.0,16.0,16.0,12.0,0.0],"links":64,"err_sig":0.0,"correct_answer":null,"cached_output":null,"category":null,"b_weight":0.2908978},{"link_weights":[-0.18712938,0.11098247,-0.33710515,-0.45471373,-0.2403351,-0.03911344,0.07429741,-0.128102,0.33017564,0.27210808,-0.15399833,0.05642014,-0.3125863,0.15539348,-0.0033950182,-0.33479303,0.1275707,-0.014540214,0.31054175,-0.4129545,-0.11248654,-0.009856293,-0.09072924,0.11434926,-0.083786964,0.076205686,0.12455646,-0.13974167,0.29107365,-0.21510094,-0.118613414,-0.34884214,0.021355867,-0.30140728,0.2927609,-0.3548711,0.31597143,-0.39614922,0.2006581,-0.15884924,-0.30968046,-0.42862514,0.31244755,-0.015565332,0.2821126,-0.3046616,0.24589412,-0.1672345,0.13642597,-0.15404078,-0.35884658,-0.03693536,0.4535072,0.10472658,0.33086872,-0.22813122,0.36258364,0.35842147,-0.4850262,-0.29353163,-0.22840616,-0.028490106,0.123880446,-0.45207867],"link_vals":[0.0,0.0,0.0,10.0,16.0,5.0,0.0,0.0,0.0,0.0,2.0,16.0,13.0,2.0,0.0,0.0,0.0,0.0,7.0,16.0,4.0,0.0,0.0,0.0,0.0,0.0,8.0,16.0,1.0,0.0,0.0,0.0,0.0,0.0,11.0,16.0,10.0,1.0,0.0,0.0,0.0,0.0,13.0,16.0,16.0,13.0,4.0,0.0,0.0,0.0,7.0,16.0,7.0,15.0,14.0,0.0,0.0,0.0,0.0,9.0,16.0,16.0,12.0,0.0],"links":64,"err_sig":4.14297e-8,"correct_answer":null,"cached_output":null,"category":null,"b_weight":0.4149978},{"link_weights":[-0.05151093,0.42829436,-0.47514272,-0.32241952,-0.1292347,-0.13512267,-0.5249446,0.42851263,-0.17908816,0.13034238,-0.572146,0.22061545,0.44778928,-0.26023647,-0.30970266,-0.33047518,0.041005366,0.43887854,-0.43628928,0.3175655,0.5356672,0.26886904,0.3389585,0.29385078,-0.47070155,0.4001236,0.05406887,-0.10999672,0.5242038,0.02172468,-0.16242729,0.18869579,-0.48466477,-0.13839501,0.122862905,-0.4442833,-0.20274739,-0.4667395,-0.07761957,-0.41212678,0.407956,0.06716839,-0.26412237,-0.071708106,-0.2617121,-0.2323201,-0.10738817,-0.4736611,-0.29739663,-0.35713324,0.021015184,-0.49177977,0.26080033,-0.11622733,-0.13228005,0.09239242,-0.10230475,-0.09863358,0.27121156,-0.37131697,-0.23544604,0.03281849,0.095222,0.41751695],"link_vals":[0.0,0.0,0.0,10.0,16.0,5.0,0.0,0.0,0.0,0.0,2.0,16.0,13.0,2.0,0.0,0.0,0.0,0.0,7.0,16.0,4.0,0.0,0.0,0.0,0.0,0.0,8.0,16.0,1.0,0.0,0.0,0.0,0.0,0.0,11.0,16.0,10.0,1.0,0.0,0.0,0.0,0.0,13.0,16.0,16.0,13.0,4.0,0.0,0.0,0.0,7.0,16.0,7.0,15.0,14.0,0.0,0.0,0.0,0.0,9.0,16.0,16.0,12.0,0.0],"links":64,"err_sig":-7.862832e-17,"correct_answer":null,"cached_output":null,"category":null,"b_weight":-0.025900725},{"link_weights":[-0.42679596,0.10165354,-0.1605548,-0.061326932,-0.23435421,0.40388766,-0.06894136,0.25643474,-0.23692423,0.2971362,-0.4049068,0.25694758,0.12973905,0.025160553,0.34000063,-0.37011284,-0.018455554,-0.011559234,0.34197447,0.3458457,-0.35559848,-0.51679695,-0.2882243,-0.18791586,0.38552934,-0.2392883,-0.330502,-0.31023538,-0.48773095,0.4798074,0.23390922,0.26861,0.38957345,0.4506367,0.07503033,-0.24294174,0.11954916,0.15633015,0.08476097,-0.099383354,-0.08741106,0.018393975,-0.3817748,0.41615358,0.415365,-0.43183073,-0.42730734,0.040954173,-0.108198255,-0.3094424,0.5002324,0.3124999,0.017700033,-0.098475866,-0.41308108,0.31683713,0.0006992752,0.49321032,0.2239963,0.042562135,0.14609025,0.24686292,-0.2958521,-0.2952612],"link_vals":[0.0,0.0,0.0,10.0,16.0,5.0,0.0,0.0,0.0,0.0,2.0,16.0,13.0,2.0,0.0,0.0,0.0,0.0,7.0,16.0,4.0,0.0,0.0,0.0,0.0,0.0,8.0,16.0,1.0,0.0,0.0,0.0,0.0,0.0,11.0,16.0,10.0,1.0,0.0,0.0,0.0,0.0,13.0,16.0,16.0,13.0,4.0,0.0,0.0,0.0,7.0,16.0,7.0,15.0,14.0,0.0,0.0,0.0,0.0,9.0,16.0,16.0,12.0,0.0],"links":64,"err_sig":-0.000006117955,"correct_answer":null,"cached_output":null,"category":null,"b_weight":0.1833905},{"link_weights":[0.36535323,-0.2784235,0.50050044,0.5574532,-0.45987302,0.09581434,0.21568212,-0.44274932,0.2121942,-0.259936,-0.28256202,0.18340187,0.30985102,0.21837893,0.43883404,-0.22115916,-0.45119265,0.18873721,0.075995244,0.38223642,0.04566556,0.5178149,-0.035883047,-0.32167217,-0.26669073,0.43858266,-0.008368306,0.18209243,-0.20024788,0.13605265,0.49445388,0.041837476,0.26391542,0.11303394,0.24965887,-0.17848137,-0.44399422,-0.09266769,0.34987986,-0.19377744,0.43492126,0.2971312,0.24272358,0.28785565,-0.18593274,0.30104294,0.28056505,0.028825538,-0.49911225,0.20699391,0.28131747,-0.101865865,-0.26662612,0.25036952,-0.25298357,0.4677767,0.3543713,0.31958857,-0.25167882,0.0843633,0.35063028,-0.29708788,-0.31279802,0.5045274],"link_vals":[0.0,0.0,0.0,10.0,16.0,5.0,0.0,0.0,0.0,0.0,2.0,16.0,13.0,2.0,0.0,0.0,0.0,0.0,7.0,16.0,4.0,0.0,0.0,0.0,0.0,0.0,8.0,16.0,1.0,0.0,0.0,0.0,0.0,0.0,11.0,16.0,10.0,1.0,0.0,0.0,0.0,0.0,13.0,16.0,16.0,13.0,4.0,0.0,0.0,0.0,7.0,16.0,7.0,15.0,14.0,0.0,0.0,0.0,0.0,9.0,16.0,16.0,12.0,0.0],"links":64,"err_sig":-3.4701012e-10,"correct_answer":null,"cached_output":null,"category":null,"b_weight":-0.2458742},{"link_weights":[-0.2604407,-0.43140128,0.2069132,0.2417261,-0.0044666436,0.40924758,0.049011733,0.2889637,0.19977927,0.005052757,-0.24534684,0.4252322,0.37254187,0.25494516,-0.4384755,-0.48331207,0.40551904,0.32370728,-0.2784948,0.3558518,-0.12042979,-0.19748485,0.068593085,0.2805184,-0.18683389,0.05494355,-0.19018403,0.38580245,0.04503,-0.46132013,0.08716956,0.43585408,0.24832423,-0.22767696,0.067030415,-0.29352266,0.40842602,-0.5221674,0.16450118,-0.43761647,0.08751744,-0.08071432,0.41222417,0.050950263,-0.17512637,-0.54658884,0.008112834,-0.39792523,0.17225984,-0.29379013,-0.34598714,0.12897287,-0.2236334,-0.30848727,-0.057464417,0.2439911,0.042549085,0.3431717,-0.29725704,-0.39190775,-0.13495632,0.093301944,-0.36851254,0.33698454],"link_vals":[0.0,0.0,0.0,10.0,16.0,5.0,0.0,0.0,0.0,0.0,2.0,16.0,13.0,2.0,0.0,0.0,0.0,0.0,7.0,16.0,4.0,0.0,0.0,0.0,0.0,0.0,8.0,16.0,1.0,0.0,0.0,0.0,0.0,0.0,11.0,16.0,10.0,1.0,0.0,0.0,0.0,0.0,13.0,16.0,16.0,13.0,4.0,0.0,0.0,0.0,7.0,16.0,7.0,15.0,14.0,0.0,0.0,0.0,0.0,9.0,16.0,16.0,12.0,0.0],"links":64,"err_sig":0.00003555008,"correct_answer":null,"cached_output":null,"category":null,"b_weight":-0.4917693},{"link_weights":[0.06899345,-0.27073196,-0.34899017,0.4383637,0.47196895,-0.032385945,0.200613,-0.455738,0.4213885,-0.07815204,-0.48487058,0.41750002,0.3878161,-0.2510349,0.4705529,0.44417226,-0.40382016,-0.12084646,-0.06958081,0.060291752,0.2949864,0.3139578,0.37180084,-0.007635355,-0.1288135,-0.12757434,0.43263412,0.15250202,-0.3339828,-0.3167485,0.2378973,-0.3382461,-0.3162912,-0.37673557,0.022537248,-0.01706876,0.05180828,-0.058675893,0.017276682,-0.49144495,-0.12323117,-0.19329843,0.2074114,0.077580765,-0.111059465,0.177227,0.4119055,-0.40516385,-0.03590691,0.46475154,0.059308052,0.120445505,-0.27174345,-0.33006126,-0.31856096,-0.20004272,0.08620322,0.29189974,0.110254265,0.3305529,0.08888489,0.5021067,-0.062185824,0.30162466],"link_vals":[0.0,0.0,0.0,10.0,16.0,5.0,0.0,0.0,0.0,0.0,2.0,16.0,13.0,2.0,0.0,0.0,0.0,0.0,7.0,16.0,4.0,0.0,0.0,0.0,0.0,0.0,8.0,16.0,1.0,0.0,0.0,0.0,0.0,0.0,11.0,16.0,10.0,1.0,0.0,0.0,0.0,0.0,13.0,16.0,16.0,13.0,4.0,0.0,0.0,0.0,7.0,16.0,7.0,15.0,14.0,0.0,0.0,0.0,0.0,9.0,16.0,16.0,12.0,0.0],"links":64,"err_sig":0.0,"correct_answer":null,"cached_output":null,"category":null,"b_weight":0.25033045},{"link_weights":[-0.0522331,-0.05257747,0.084398195,-0.40504932,-0.094076335,0.22379497,-0.1457989,-0.30962235,-0.4453944,-0.45881328,-0.34175527,0.38429552,0.10634238,-0.024758793,0.46339718,0.19622795,0.0873788,-0.078412145,-0.46752197,-0.53005207,-0.16152933,-0.2927426,-0.39843425,0.26588118,0.07849944,-0.40574512,-0.27058315,0.1747689,-0.14516108,-0.06628324,0.20153755,0.110105835,-0.19491604,0.0813254,0.22462654,0.086469516,0.1428715,0.6012126,0.3835743,-0.42155325,-0.2888157,0.2995352,-0.08692943,0.42818674,-0.015593754,-0.37852007,-0.050535284,-0.19172671,0.4880114,-0.25891012,-0.10883304,0.012897793,0.2326476,-0.30167723,0.08591029,0.12652043,0.24240498,-0.39821127,-0.20944193,0.25976726,-0.24685098,0.22126533,-0.42230076,0.26725382],"link_vals":[0.0,0.0,0.0,10.0,16.0,5.0,0.0,0.0,0.0,0.0,2.0,16.0,13.0,2.0,0.0,0.0,0.0,0.0,7.0,16.0,4.0,0.0,0.0,0.0,0.0,0.0,8.0,16.0,1.0,0.0,0.0,0.0,0.0,0.0,11.0,16.0,10.0,1.0,0.0,0.0,0.0,0.0,13.0,16.0,16.0,13.0,4.0,0.0,0.0,0.0,7.0,16.0,7.0,15.0,14.0,0.0,0.0,0.0,0.0,9.0,16.0,16.0,12.0,0.0],"links":64,"err_sig":6.10423e-9,"correct_answer":null,"cached_output":null,"category":null,"b_weight":-0.4683344},{"link_weights":[-0.31954646,0.18902746,0.21056882,-0.22137544,-0.48330697,-0.4162252,0.21001995,-0.45969856,0.28661692,-0.0447599,-0.15324847,-0.44476584,-0.25956687,0.24645726,-0.3963502,-0.054546475,-0.036483884,0.39379168,-0.47283697,0.46929443,-0.20964287,0.06606956,-0.009259995,-0.49484575,-0.48292387,-0.3975224,-0.48046547,0.13671383,-0.40472186,-0.16905537,-0.033408023,-0.032693744,0.43490827,0.16863836,-0.10019724,-0.15136345,-0.17711185,0.057211924,-0.07348069,0.1104759,-0.2587831,-0.287034,-0.32374758,0.2417657,-0.31019738,-0.12834018,0.1269382,-0.43879437,0.2113843,0.43416253,0.41898528,-0.33703148,-0.06845279,-0.15748803,-0.16935508,0.47374505,-0.038232803,0.11951198,-0.03622929,0.23845325,0.117229246,-0.34799847,0.2822778,-0.14442733],"link_vals":[0.0,0.0,0.0,10.0,16.0,5.0,0.0,0.0,0.0,0.0,2.0,16.0,13.0,2.0,0.0,0.0,0.0,0.0,7.0,16.0,4.0,0.0,0.0,0.0,0.0,0.0,8.0,16.0,1.0,0.0,0.0,0.0,0.0,0.0,11.0,16.0,10.0,1.0,0.0,0.0,0.0,0.0,13.0,16.0,16.0,13.0,4.0,0.0,0.0,0.0,7.0,16.0,7.0,15.0,14.0,0.0,0.0,0.0,0.0,9.0,16.0,16.0,12.0,0.0],"links":64,"err_sig":1.3896533e-20,"correct_answer":null,"cached_output":null,"category":null,"b_weight":-0.36146337},{"link_weights":[0.39912987,-0.12895526,0.4382621,0.4163368,0.34123826,0.35956693,-0.37144807,0.42603445,0.44286716,0.08222566,0.3781549,-0.1382469,0.44090748,-0.48896882,0.35570544,0.17590296,-0.4192338,-0.45122075,-0.37671077,0.18014877,-0.26244253,-0.29778245,0.34746268,0.4529264,0.29538417,0.24796236,-0.083175525,0.13899179,0.40276653,0.109400444,-0.19086114,0.113205194,-0.3111409,0.24676827,0.11039359,0.05996707,-0.39605772,0.16763274,0.4240602,-0.24992204,-0.035379887,-0.37028313,0.077076994,0.44728717,0.43201828,0.27300513,0.44202986,-0.4914862,0.09192014,-0.20274778,0.3193309,0.35543612,0.31216452,-0.43330643,-0.4116427,-0.42331636,0.104415536,-0.4455599,-0.17028631,0.072749585,0.15486875,0.15792394,0.32583538,-0.056437735],"link_vals":[0.0,0.0,0.0,10.0,16.0,5.0,0.0,0.0,0.0,0.0,2.0,16.0,13.0,2.0,0.0,0.0,0.0,0.0,7.0,16.0,4.0,0.0,0.0,0.0,0.0,0.0,8.0,16.0,1.0,0.0,0.0,0.0,0.0,0.0,11.0,16.0,10.0,1.0,0.0,0.0,0.0,0.0,13.0,16.0,16.0,13.0,4.0,0.0,0.0,0.0,7.0,16.0,7.0,15.0,14.0,0.0,0.0,0.0,0.0,9.0,16.0,16.0,12.0,0.0],"links":64,"err_sig":-0.0,"correct_answer":null,"cached_output":null,"category":null,"b_weight":-0.18822682},{"link_weights":[0.13972974,-0.4845693,-0.3192939,-0.12056584,0.18544397,-0.37282145,-0.050553665,-0.16975997,-0.043681774,0.21940719,0.30417344,-0.16543792,0.1596718,-0.04276321,-0.030285945,0.12746462,0.21944533,-0.33548158,-0.28745902,-0.35032228,0.60044724,0.5739707,0.5304497,0.17657973,-0.4399446,0.08305749,-0.30407798,-0.0018650616,0.11023666,0.028221933,0.036539122,0.44347447,-0.05106703,-0.41483963,0.16997099,0.07682937,-0.007814256,0.20211694,0.18676035,-0.033393264,0.18896395,-0.35504746,-0.21549694,0.31664294,0.5465958,0.008842913,-0.003991467,-0.4438083,-0.18318678,0.20316635,-0.28260073,0.031195818,-0.02721074,0.21187377,-0.030070337,-0.3287137,0.12694195,-0.24799192,0.0056028874,-0.38025174,0.037608474,-0.096362054,0.13707979,-0.39397952],"link_vals":[0.0,0.0,0.0,10.0,16.0,5.0,0.0,0.0,0.0,0.0,2.0,16.0,13.0,2.0,0.0,0.0,0.0,0.0,7.0,16.0,4.0,0.0,0.0,0.0,0.0,0.0,8.0,16.0,1.0,0.0,0.0,0.0,0.0,0.0,11.0,16.0,10.0,1.0,0.0,0.0,0.0,0.0,13.0,16.0,16.0,13.0,4.0,0.0,0.0,0.0,7.0,16.0,7.0,15.0,14.0,0.0,0.0,0.0,0.0,9.0,16.0,16.0,12.0,0.0],"links":64,"err_sig":-0.000018923476,"correct_answer":null,"cached_output":null,"category":null,"b_weight":-0.24375907},{"link_weights":[0.06757593,0.38541096,0.12537104,0.026225684,-0.34103692,-0.014852489,0.14353393,-0.34099218,-0.46538267,-0.51052153,-0.7568314,-0.17745692,0.037803624,-0.32419336,-0.5157153,0.41556597,0.3168804,-0.25650066,0.2065548,0.348028,-0.03101793,-0.15899499,-0.16143909,-0.18426475,-0.25203073,-0.104004264,0.35822514,0.11016012,-0.040988203,0.39268267,0.029659152,0.0038428465,-0.23258507,0.16030839,-0.29297492,0.29712197,-0.32190046,-0.19297749,-0.032505885,0.2332102,0.20423278,0.2884969,-0.049105205,0.15637732,0.10246319,0.39167142,-0.2970697,-0.08888546,-0.19338666,0.36091885,-0.13567732,0.33192867,0.43743283,0.101160645,-0.32325318,-0.06476015,0.3689637,-0.153515,0.37478048,-0.55108005,-0.001879576,0.07676439,-0.013687464,-0.28781608],"link_vals":[0.0,0.0,0.0,10.0,16.0,5.0,0.0,0.0,0.0,0.0,2.0,16.0,13.0,2.0,0.0,0.0,0.0,0.0,7.0,16.0,4.0,0.0,0.0,0.0,0.0,0.0,8.0,16.0,1.0,0.0,0.0,0.0,0.0,0.0,11.0,16.0,10.0,1.0,0.0,0.0,0.0,0.0,13.0,16.0,16.0,13.0,4.0,0.0,0.0,0.0,7.0,16.0,7.0,15.0,14.0,0.0,0.0,0.0,0.0,9.0,16.0,16.0,12.0,0.0],"links":64,"err_sig":-5.9725795e-7,"correct_answer":null,"cached_output":null,"category":null,"b_weight":0.4248575},{"link_weights":[0.4871248,0.39547682,-0.32490197,-0.39253643,0.46561968,-0.363953,0.20779462,0.13927202,0.41083804,-0.45037222,0.4573313,-0.25758928,0.4592217,0.38331333,0.26144487,0.17396045,-0.12528044,-0.47175416,0.21457164,-0.40304217,0.30430153,-0.2754679,0.1946724,0.072967865,0.06277856,-0.38574937,-0.43318436,0.45685008,0.37668183,-0.07640931,0.18265921,-0.16342163,-0.35879982,0.34204867,0.30023283,-0.300364,0.37575606,-0.13325453,-0.014744564,0.2830404,0.072782874,0.35432556,0.37733376,-0.09551543,0.49892175,-0.25498074,0.27490586,-0.24472295,0.32930458,0.23478918,0.44548252,0.07440101,-0.06578262,0.07435178,0.35919952,0.17452687,-0.059475183,-0.06255273,0.10342952,0.40130347,-0.26711115,-0.30771017,0.41411972,0.4114254],"link_vals":[0.0,0.0,0.0,10.0,16.0,5.0,0.0,0.0,0.0,0.0,2.0,16.0,13.0,2.0,0.0,0.0,0.0,0.0,7.0,16.0,4.0,0.0,0.0,0.0,0.0,0.0,8.0,16.0,1.0,0.0,0.0,0.0,0.0,0.0,11.0,16.0,10.0,1.0,0.0,0.0,0.0,0.0,13.0,16.0,16.0,13.0,4.0,0.0,0.0,0.0,7.0,16.0,7.0,15.0,14.0,0.0,0.0,0.0,0.0,9.0,16.0,16.0,12.0,0.0],"links":64,"err_sig":-0.0,"correct_answer":null,"cached_output":null,"category":null,"b_weight":-0.14353676},{"link_weights":[-0.16445076,0.37546608,0.16545855,-0.4335178,0.2903914,0.3350937,-0.03783927,0.35262272,0.2857086,-0.1546144,-0.35528386,-0.12648542,0.44490236,-0.4894927,0.34931478,-0.3220911,0.18903433,-0.22438306,-0.71137136,0.2034742,0.10007239,0.051609386,-0.16864552,-0.4973078,0.43768525,0.2835208,-0.20338236,0.21420017,0.5480471,-0.04661852,0.34361723,-0.34579012,0.37542647,-0.39740303,0.021929115,0.13840657,0.26284638,-0.2877042,-0.062861845,-0.33545518,0.48541045,0.15528059,-0.18297543,-0.09222753,-0.12312948,-0.30362394,0.5123586,0.30368763,0.124805056,0.3658493,0.36025158,0.60685647,-0.24950202,0.32721353,-0.39631698,-0.09921721,0.34764445,0.40380195,-0.3430899,0.26191595,-0.24349932,-0.17186818,-0.2100451,-0.018296937],"link_vals":[0.0,0.0,0.0,10.0,16.0,5.0,0.0,0.0,0.0,0.0,2.0,16.0,13.0,2.0,0.0,0.0,0.0,0.0,7.0,16.0,4.0,0.0,0.0,0.0,0.0,0.0,8.0,16.0,1.0,0.0,0.0,0.0,0.0,0.0,11.0,16.0,10.0,1.0,0.0,0.0,0.0,0.0,13.0,16.0,16.0,13.0,4.0,0.0,0.0,0.0,7.0,16.0,7.0,15.0,14.0,0.0,0.0,0.0,0.0,9.0,16.0,16.0,12.0,0.0],"links":64,